tree
version=v3
num_class=1
num_tree_per_iteration=1
label_index=0
max_feature_idx=213
objective=regression
feature_names=F0_query_dim0 F0_query_dim1 F0_query_dim2 F0_query_dim3 F0_query_dim4 F0_query_dim5 F0_query_dim6 F0_query_dim7 F0_query_dim8 F0_query_dim9 F0_query_dim10 F0_query_dim11 F0_query_dim12 F0_query_dim13 F0_query_dim14 F0_query_dim15 F0_query_dim16 F0_query_dim17 F0_query_dim18 F0_query_dim19 F0_query_dim20 F0_query_dim21 F0_query_dim22 F0_query_dim23 F0_query_dim24 F0_query_dim25 F0_query_dim26 F0_query_dim27 F0_query_dim28 F0_query_dim29 F0_query_dim30 F0_query_dim31 F0_query_dim32 F0_query_dim33 F0_query_dim34 F0_query_dim35 F0_query_dim36 F0_query_dim37 F0_query_dim38 F0_query_dim39 F0_query_dim40 F0_query_dim41 F0_query_dim42 F0_query_dim43 F0_query_dim44 F0_query_dim45 F0_query_dim46 F0_query_dim47 F0_query_dim48 F0_query_dim49 F0_query_dim50 F0_query_dim51 F0_query_dim52 F0_query_dim53 F0_query_dim54 F0_query_dim55 F0_query_dim56 F0_query_dim57 F0_query_dim58 F0_query_dim59 F0_query_dim60 F0_query_dim61 F0_query_dim62 F0_query_dim63 F0_query_dim64 F0_query_dim65 F0_query_dim66 F0_query_dim67 F0_query_dim68 F0_query_dim69 F0_query_dim70 F0_query_dim71 F0_query_dim72 F0_query_dim73 F0_query_dim74 F0_query_dim75 F0_query_dim76 F0_query_dim77 F0_query_dim78 F0_query_dim79 F0_query_dim80 F0_query_dim81 F0_query_dim82 F0_query_dim83 F0_query_dim84 F0_query_dim85 F0_query_dim86 F0_query_dim87 F0_query_dim88 F0_query_dim89 F0_query_dim90 F0_query_dim91 F0_query_dim92 F0_query_dim93 F0_query_dim94 F0_query_dim95 F0_query_dim96 F0_query_dim97 F0_query_dim98 F0_query_dim99 F0_query_dim100 F0_query_dim101 F0_query_dim102 F0_query_dim103 F0_query_dim104 F0_query_dim105 F0_query_dim106 F0_query_dim107 F0_query_dim108 F0_query_dim109 F0_query_dim110 F0_query_dim111 F0_query_dim112 F0_query_dim113 F0_query_dim114 F0_query_dim115 F0_query_dim116 F0_query_dim117 F0_query_dim118 F0_query_dim119 F0_query_dim120 F0_query_dim121 F0_query_dim122 F0_query_dim123 F0_query_dim124 F0_query_dim125 F0_query_dim126 F0_query_dim127 F0_query_dim128 F0_query_dim129 F0_query_dim130 F0_query_dim131 F0_query_dim132 F0_query_dim133 F0_query_dim134 F0_query_dim135 F0_query_dim136 F0_query_dim137 F0_query_dim138 F0_query_dim139 F0_query_dim140 F0_query_dim141 F0_query_dim142 F0_query_dim143 F0_query_dim144 F0_query_dim145 F0_query_dim146 F0_query_dim147 F0_query_dim148 F0_query_dim149 F0_query_dim150 F0_query_dim151 F0_query_dim152 F0_query_dim153 F0_query_dim154 F0_query_dim155 F0_query_dim156 F0_query_dim157 F0_query_dim158 F0_query_dim159 F0_query_dim160 F0_query_dim161 F0_query_dim162 F0_query_dim163 F0_query_dim164 F0_query_dim165 F0_query_dim166 F0_query_dim167 F0_query_dim168 F0_query_dim169 F0_query_dim170 F0_query_dim171 F0_query_dim172 F0_query_dim173 F0_query_dim174 F0_query_dim175 F0_query_dim176 F0_query_dim177 F0_query_dim178 F0_query_dim179 F0_query_dim180 F0_query_dim181 F0_query_dim182 F0_query_dim183 F0_query_dim184 F0_query_dim185 F0_query_dim186 F0_query_dim187 F0_query_dim188 F0_query_dim189 F0_query_dim190 F0_query_dim191 F0_query_dim192 F0_query_dim193 F0_query_dim194 F0_query_dim195 F0_query_dim196 F0_query_dim197 F0_query_dim198 F0_query_dim199 F1_c_10th_to_c_1st F1_c_20th_to_c_1st F1_c_30th_to_c_1st F1_c_40th_to_c_1st F1_c_50th_to_c_1st F1_c_60th_to_c_1st F1_c_70th_to_c_1st F1_c_80th_to_c_1st F1_c_90th_to_c_1st F1_c_100th_to_c_1st F2_d_1st F3_d_10th F4_d_1st_to_d_10th F5_d_1st_to_c_1st
feature_infos=[-0.24425880610942841:0.22175844013690948] [-0.1950603723526001:0.23323723673820496] [-0.25143995881080627:0.23799735307693481] [-0.22180306911468506:0.24174834787845612] [-0.24010778963565826:0.19682104885578156] [-0.18643142282962799:0.2153259813785553] [-0.17618469893932343:0.24284417927265167] [-0.25275829434394836:0.2452029287815094] [-0.2279980480670929:0.22459709644317627] [-0.22846987843513489:0.19428534805774689] [-0.23435120284557343:0.22278314828872681] [-0.18072950839996338:0.21867498755455017] [-0.24349705874919891:0.21825872361660004] [-0.21189668774604797:0.24776749312877655] [-0.1779540628194809:0.22271406650543213] [-0.1922648549079895:0.2169841080904007] [-0.20236507058143616:0.23728014528751373] [-0.22519147396087646:0.19993284344673157] [-0.22073559463024139:0.22790354490280151] [-0.24804376065731049:0.19379042088985443] [-0.19886790215969086:0.29872158169746399] [-0.23506280779838562:0.20269356667995453] [-0.27218520641326904:0.19262458384037018] [-0.18782724440097809:0.24284164607524872] [-0.2134135365486145:0.23701716959476471] [-0.20434246957302094:0.20268517732620239] [-0.25054562091827393:0.18148434162139893] [-0.25929379463195801:0.18183653056621552] [-0.27001947164535522:0.28816178441047668] [-0.21066364645957947:0.20157155394554138] [-0.18594329059123993:0.20329022407531738] [-0.20480695366859436:0.23027338087558746] [-0.23372243344783783:0.21559076011180878] [-0.19894015789031982:0.22709296643733978] [-0.22273604571819305:0.21555989980697632] [-0.19971472024917603:0.23395732045173645] [-0.20671914517879486:0.20086725056171417] [-0.14067552983760834:0.2822909951210022] [-0.20191089808940887:0.22342374920845032] [-0.23743201792240143:0.25277379155158997] [-0.21224662661552429:0.24001120030879974] [-0.27769854664802551:0.22059957683086395] [-0.20096313953399658:0.25483745336532593] [-0.22532643377780914:0.21446512639522552] [-0.23821789026260376:0.22246038913726807] [-0.20609213411808014:0.23487736284732819] [-0.24060890078544617:0.22442547976970673] [-0.23841919004917145:0.25122049450874329] [-0.16958950459957123:0.2473294734954834] [-0.2199302464723587:0.18870614469051361] [-0.23710601031780243:0.20557676255702972] [-0.23030449450016022:0.21990692615509033] [-0.25373968482017517:0.20046041905879974] [-0.23276831209659576:0.21166084706783295] [-0.18892174959182739:0.20474793016910553] [-0.2107338160276413:0.23541131615638733] [-0.25945201516151428:0.20616382360458374] [-0.20971295237541199:0.21112127602100372] [-0.25018811225891113:0.21075579524040222] [-0.22098506987094879:0.29391825199127197] [-0.21124352514743805:0.21864591538906097] [-0.23919323086738586:0.20569925010204315] [-0.25411185622215271:0.26356229186058044] [-0.22615835070610046:0.21346735954284668] [-0.22879908978939056:0.20522600412368774] [-0.21038568019866943:0.20839090645313263] [-0.19175504148006439:0.21654710173606873] [-0.2346646636724472:0.19863684475421906] [-0.23387886583805084:0.20499183237552643] [-0.21177157759666443:0.24190890789031982] [-0.19782555103302002:0.21392187476158142] [-0.1928127259016037:0.20941610634326935] [-0.25526192784309387:0.16673840582370758] [-0.19023153185844421:0.22211058437824249] [-0.243580162525177:0.20506903529167175] [-0.25103244185447693:0.24139703810214996] [-0.21805866062641144:0.19957911968231201] [-0.20657537877559662:0.24931715428829193] [-0.22416138648986816:0.24120578169822693] [-0.23409184813499451:0.1918359100818634] [-0.24153211712837219:0.23014503717422485] [-0.19992922246456146:0.28824752569198608] [-0.28391620516777039:0.23820415139198303] [-0.20933179557323456:0.23339168727397919] [-0.19681422412395477:0.25154590606689453] [-0.20217132568359375:0.25876668095588684] [-0.2716096043586731:0.21403251588344574] [-0.18141208589076996:0.20155182480812073] [-0.19280962646007538:0.27887833118438721] [-0.20746313035488129:0.2119971364736557] [-0.23159217834472656:0.20315788686275482] [-0.18438519537448883:0.24201402068138123] [-0.19329109787940979:0.22398020327091217] [-0.21832112967967987:0.18871654570102692] [-0.23006412386894226:0.2216256707906723] [-0.31428009271621704:0.2025970071554184] [-0.2087404727935791:0.22652699053287506] [-0.23412466049194336:0.23922020196914673] [-0.20418699085712433:0.21446265280246735] [-0.20444454252719879:0.21020245552062988] [-0.21113760769367218:0.22243143618106842] [-0.20666678249835968:0.22364139556884766] [-0.21984516084194183:0.27158746123313904] [-0.22186294198036194:0.16121591627597809] [-0.25721275806427002:0.19488680362701416] [-0.22784715890884399:0.21799755096435547] [-0.22624804079532623:0.19688107073307037] [-0.21562081575393677:0.24015803635120392] [-0.2562294602394104:0.19638146460056305] [-0.1748763769865036:0.23636505007743835] [-0.16579245030879974:0.2735714316368103] [-0.22438637912273407:0.22477491199970245] [-0.24424374103546143:0.1863434910774231] [-0.22638298571109772:0.20652230083942413] [-0.17227277159690857:0.28133159875869751] [-0.23627376556396484:0.21173982322216034] [-0.16410179436206818:0.26173412799835205] [-0.20949037373065948:0.19479659199714661] [-0.19213041663169861:0.25727227330207825] [-0.25866416096687317:0.24007363617420197] [-0.19793955981731415:0.20141471922397614] [-0.24814224243164062:0.20074214041233063] [-0.21406207978725433:0.20314086973667145] [-0.22088317573070526:0.18868951499462128] [-0.21751996874809265:0.2690485417842865] [-0.21744197607040405:0.18516959249973297] [-0.20914572477340698:0.1966426819562912] [-0.20633995532989502:0.23286630213260651] [-0.23011915385723114:0.2003922164440155] [-0.23765678703784943:0.16728231310844421] [-0.2174602597951889:0.25408819317817688] [-0.2333306223154068:0.18640072643756866] [-0.23808836936950684:0.19693976640701294] [-0.20010422170162201:0.23508799076080322] [-0.22514434158802032:0.22614230215549469] [-0.18406021595001221:0.21459324657917023] [-0.23551395535469055:0.21763408184051514] [-0.28368276357650757:0.16034704446792603] [-0.22537891566753387:0.22004668414592743] [-0.24657765030860901:0.19831368327140808] [-0.1605803519487381:0.2491648942232132] [-0.1975385844707489:0.23744320869445801] [-0.23156492412090302:0.19185063242912292] [-0.21615301072597504:0.20312516391277313] [-0.21046076714992523:0.25749430060386658] [-0.17413544654846191:0.25533753633499146] [-0.22591385245323181:0.23193322122097015] [-0.21297755837440491:0.24628353118896484] [-0.19825193285942078:0.2422359436750412] [-0.18970470130443573:0.23652113974094391] [-0.20265395939350128:0.21646453440189362] [-0.27122527360916138:0.19383220374584198] [-0.21883970499038696:0.21784177422523499] [-0.20816317200660706:0.24297690391540527] [-0.17220573127269745:0.2306821346282959] [-0.23592013120651245:0.24919040501117706] [-0.2486766129732132:0.17913907766342163] [-0.24236682057380676:0.15891911089420319] [-0.22845330834388733:0.22137884795665741] [-0.19334803521633148:0.23629118502140045] [-0.25075101852416992:0.17280291020870209] [-0.23683811724185944:0.25766962766647339] [-0.26032793521881104:0.24785396456718445] [-0.21281254291534424:0.20245766639709473] [-0.23251952230930328:0.19495290517807007] [-0.24188342690467834:0.17205938696861267] [-0.21214601397514343:0.2529100775718689] [-0.20680771768093109:0.22521376609802246] [-0.15959425270557404:0.25855621695518494] [-0.22974175214767456:0.24070963263511658] [-0.22215805947780609:0.22316828370094299] [-0.17597417533397675:0.27030402421951294] [-0.25708523392677307:0.18941481411457062] [-0.30037835240364075:0.15535883605480194] [-0.2721429169178009:0.20084021985530853] [-0.20647124946117401:0.23620697855949402] [-0.19170859456062317:0.22269456088542938] [-0.27486616373062134:0.18764817714691162] [-0.2173016220331192:0.23596702516078949] [-0.17653831839561462:0.2353338748216629] [-0.20113725960254669:0.20139326155185699] [-0.2933768630027771:0.18512828648090363] [-0.20093756914138794:0.21521864831447601] [-0.29909452795982361:0.20266258716583252] [-0.19526149332523346:0.24360483884811401] [-0.2378661185503006:0.20422300696372986] [-0.26319369673728943:0.23361010849475861] [-0.18309137225151062:0.30010789632797241] [-0.17446441948413849:0.2348361611366272] [-0.20038087666034698:0.23653215169906616] [-0.24729415774345398:0.20563779771327972] [-0.23561912775039673:0.20210552215576172] [-0.2176797091960907:0.30123817920684814] [-0.25769692659378052:0.19912067055702209] [-0.22667054831981659:0.2099127471446991] [-0.15901212394237518:0.26748168468475342] [-0.22728808224201202:0.2080531120300293] [-0.26745200157165527:0.23052485287189484] [-0.21010392904281616:0.20626316964626312] [-0.21823056042194366:0.17451284825801849] [0.35776284000000003:0.97661869999999995] [0.30355757:0.93803099999999995] [0.26210997000000003:0.92869959999999996] [0.1935945:0.91809379999999996] [0.17474654000000001:0.90908440000000001] [0.15326075:0.90286040000000001] [0.13325147000000001:0.89717954] [0.110412546:0.88604223999999998] [0.10388322999999999:0.87897259999999999] [0.092936224999999997:0.87268829999999997] [0.38819468000000001:0.67777746999999999] [0.37643713000000001:0.63691615999999995] [1.0066116000000001:1.3644320000000001] [0.75769096999999996:2.0806741999999998]
tree_sizes=2657 2710 2689 2692 2706 2697 2700 2734 2707 2724 2728 2747 2744 2746 2757 2763 2755 2752 2743 2746 2751 2773 2787 2750 2745 2759 2742 2791 2766 2749 2766 2739 2765 2756 2769 2763 2768 2766 2755 2764 2768 2771 2764 2764 2776 2785 2761 2779 2773 2795 2784 2766 2785 2773 2799 2791 2769 2778 2765 2775 2765 2779 2779 2779 2796 2761 2774 2785 2801 2771 2775 2784 2807 2791 2773 2797 2796 2790 2783 2774 2794 2797 2779 2803 2794 2807 2785 2772 2794 2814 2796 2798 2798 2812 2810 2795 2805 2783 2785 2781

Tree=0
num_leaves=31
num_cat=0
split_feature=205 100 211 146 210 67 72 173 79 204 68 95 81 209 179 211 20 49 35 62 202 174 31 14 71 33 165 74 187 107
split_gain=117210 65386.6 27804.8 27493 26341.8 28082.3 14922.3 11219.7 13081.4 10614.3 14418.2 8248.03 6979.99 5720.86 9300.15 5535.43 4459.48 3861.64 9686.2 3383.57 3163.87 3116.37 3650.1 2826.16 4970.81 2770.18 2549.49 2970.45 2082.23 2004.87
threshold=0.79286472500000016 -0.061281878501176827 0.46157323000000006 -0.093796823173761354 0.43733146000000006 -0.072705447673797594 -0.15784519910812375 -0.10215809941291808 -0.089073318988084779 0.62540920000000011 -0.13335119932889936 -0.096331883221864686 0.077772669494152083 0.68497888000000018 0.014791565947234632 0.50518490000000005 0.022508479654788974 -0.10973953083157538 0.042494732886552818 0.096850145608186736 0.82489845000000017 -0.064245868474245058 0.023618659935891632 0.014660465065389873 0.023914849385619167 -0.083993066102266298 -0.044558793306350701 0.0083681247197091597 -0.046577475965023034 0.025584375485777858
decision_type=2 2 2 2 2 2 2 2 2 2 2 2 2 2 2 2 2 2 2 2 2 2 2 2 2 2 2 2 2 2
left_child=2 -2 6 -3 5 -5 -1 8 -8 -4 -11 -6 -13 25 -15 17 -10 18 -12 -14 28 -22 29 24 -16 -9 27 -18 -19 -23
right_child=1 3 9 4 11 -7 7 13 16 10 15 12 19 14 23 -17 26 20 -20 -21 21 22 -24 -25 -26 -27 -28 -29 -30 -31
leaf_value=7.5099999999999998 13.619354838709677 11.16 0.47494845360824745 3.6222222222222222 5.9555555555555557 13.51 8.036363636363637 3.347826086956522 5.4900000000000002 6.2272727272727275 1.0564102564102564 4.9272727272727277 1.4051282051282052 6.6299999999999999 1.3520000000000001 0.58205546492659055 5.1600000000000001 3.0636363636363639 6.4700000000000006 3.7928571428571431 1.0043478260869565 3.5047619047619052 5.3238095238095244 1.443137254901961 5.4260869565217398 1.0927536231884059 1.3071428571428572 2.0133333333333332 1.0988361683079677 0.77272727272727282
leaf_weight=20 31 20 1940 27 27 20 22 23 20 22 39 33 156 20 25 613 20 22 20 28 46 21 21 102 23 414 56 30 1117 22
leaf_count=20 31 20 1940 27 27 20 22 23 20 22 39 33 156 20 25 613 20 22 20 28 46 21 21 102 23 414 56 30 1117 22
internal_value=0 24.3012 5.12087 19.9357 17.4708 39.1489 10.5897 9.8755 17.6824 4.02936 5.68142 13.2951 11.2442 7.97199 12.8941 5.3899 13.754 6.55199 14.4576 8.84239 6.17854 11.3 15.8125 10.1933 16.5208 6.05721 11.1698 16.36 5.68393 10.5349
internal_weight=0 342 4658 311 291 47 775 755 148 3883 1943 244 217 607 170 1921 126 1308 59 184 1249 110 64 150 48 437 106 50 1139 43
internal_count=5000 342 4658 311 291 47 775 755 148 3883 1943 244 217 607 170 1921 126 1308 59 184 1249 110 64 150 48 437 106 50 1139 43
shrinkage=0.2


Tree=1
num_leaves=31
num_cat=0
split_feature=205 183 146 210 8 211 169 208 115 144 66 6 72 54 24 100 97 94 31 203 46 202 193 21 98 102 21 107 11 197
split_gain=75014.7 45316.3 25287.2 21731.9 23538.5 18385.6 8800.85 7710.76 8982.38 14199.9 7035.33 8922.91 5514.24 4690.44 4585.6 5646.51 4651.02 7209.16 4631.25 4528.88 4460.72 2597.09 2728.11 5280.77 2503.12 2236.48 4285.55 2057.73 4202.18 2171.59
threshold=0.79286472500000016 0.011840694583952429 -0.095370180904865251 0.43733146000000006 0.0032765105133876209 0.4754986650000001 -0.16684202104806897 0.52752421500000013 -0.092922516167163835 0.050320036709308631 -0.053967529907822602 -0.009365831967443226 -0.16417982429265973 -0.041130924597382539 0.061687294393777854 0.058722803369164474 -0.018036662600934502 -0.014429133385419844 -0.11195082217454909 0.80812797500000011 0.02481357287615538 0.67728510000000008 0.068527705967426314 -0.021769290789961811 -0.10773826763033865 0.045183448120951659 0.073213338851928725 -0.041591867804527276 -0.046788308769464486 0.026848057284951213
decision_type=2 2 2 2 2 2 2 2 2 2 2 2 2 2 2 2 2 2 2 2 2 2 2 2 2 2 2 2 2 2
left_child=5 2 -2 4 -4 7 -7 -1 9 -9 11 -5 -10 -12 18 16 17 -16 -14 21 -21 -8 24 -24 -23 26 -20 28 -26 -30
right_child=1 -3 3 10 -6 6 19 8 12 -11 13 -13 14 -15 15 -17 -18 -19 25 20 -22 22 23 -25 27 -27 -28 -29 29 -31
leaf_value=0.57779203816623748 10.013406326770784 10.932950373671272 11.795684323012829 6.5718360100801183 2.7431275138148554 4.6368244487614865 0.33257793886340936 1.1212434253758854 4.3175268749041216 7.8072982074692847 4.259819488823414 1.0990834930403668 3.6278731235768649 1.0257610110244875 6.4557499594613921 4.9851217668503525 1.2778958426240612 1.0857752473652365 1.3376431460994707 4.4688559977499684 0.52987826575079688 2.8682711578905584 4.6548873710632321 0.33218013755977155 4.0111981476843352 0.81943546112030752 4.1464374842203187 0.53018909518621149 0.53750791145319299 2.7142037360505626
leaf_weight=334 20 33 20 26 27 21 1703 27 28 24 20 22 32 174 20 28 119 20 393 23 23 20 20 26 20 375 23 1247 110 22
leaf_count=334 20 33 20 26 27 21 1703 27 28 24 20 22 32 174 20 28 119 20 393 23 23 20 20 26 20 375 23 1247 110 22
internal_value=0 19.4409 15.6792 13.2994 32.9764 4.09669 2.77903 7.09223 8.38138 21.3381 9.47782 20.3175 7.74478 6.79585 7.36102 11.8311 9.52516 18.8538 6.34533 2.6457 12.4968 2.50266 3.47887 11.0581 3.23317 5.86821 7.46469 3.07437 6.5481 4.50145
internal_weight=0 342 309 289 47 4658 3235 1423 1089 51 242 48 1038 194 1010 187 159 40 823 3214 46 3168 1465 46 1419 791 416 1399 152 132
internal_count=5000 342 309 289 47 4658 3235 1423 1089 51 242 48 1038 194 1010 187 159 40 823 3214 46 3168 1465 46 1419 791 416 1399 152 132
shrinkage=0.2


Tree=2
num_leaves=31
num_cat=0
split_feature=211 164 173 201 102 49 143 154 10 160 16 1 17 190 157 211 128 5 156 135 17 210 77 12 11 176 128 123 182 108
split_gain=52488.5 72416 17538 14083.4 23559 8236.48 9137.83 6991.99 5817.78 9660.22 4975.1 4737.92 4801.96 3857.87 3719.76 3493.87 3254.26 2336.64 2331.07 3145.15 2732.82 5222.4 2176.08 2866.1 5237.81 2153.52 2025.29 1623.83 1559.81 1398.99
threshold=0.44122681000000002 -0.085882954299449907 -0.13977736979722974 0.83399817000000009 0.14762940257787707 -0.078269798308610902 0.017104852013289932 0.12518037855625155 0.0963406376540661 -0.04248376935720443 0.17824460566043857 0.1446778476238251 0.11048607155680658 -0.18477028608322141 0.038585105910897262 0.49256452000000006 0.12340034916996957 -0.08003275096416472 -0.082877092063426958 -0.075508296489715562 -0.065630562603473649 0.49529972000000005 0.0087228016927838343 -0.034714136272668832 0.020863422192633155 -0.042882874608039849 -0.095952738076448427 0.051894271746277816 -0.15504710376262662 -0.053472150117158883
decision_type=2 2 2 2 2 2 2 2 2 2 2 2 2 2 2 2 2 2 2 2 2 2 2 2 2 2 2 2 2 2
left_child=1 -1 -3 10 5 6 -5 8 17 -10 13 12 14 -2 16 18 22 -4 19 -15 21 -21 23 27 -25 -22 -19 -7 -17 -28
right_child=3 2 7 4 -6 11 -8 -9 9 -11 -12 -13 -14 15 -16 28 -18 26 -20 20 25 -23 -24 24 -26 -27 29 -29 -30 -31
leaf_value=13.915801031174869 3.2381836964935062 6.6888917489086879 3.3029484403133398 0.96424671539238516 8.2444176721572884 0.4495893938712372 6.7968814060091978 4.5235558894840446 1.2203432013248576 6.8528248693261835 2.8974161670488474 3.3412639428888049 3.9111267646153771 3.5232831362457504 3.5061122870445254 1.8968743700534105 3.2292090058326721 2.9768717777729035 0.55724139176548704 4.656191257522865 2.6957069399952891 0.72379826660667146 0.29458753930386583 4.9620091634988786 0.69172261070322116 0.53125666588332443 1.6082367881281034 2.308604300699451 0.27591568698681207 0.52071138786738869
leaf_weight=23 20 34 20 21 20 129 22 37 29 21 34 35 21 21 20 24 20 20 1290 22 20 35 307 20 27 228 70 22 2242 146
leaf_count=23 20 34 20 21 20 129 22 37 29 21 34 35 21 21 20 24 20 20 1290 22 20 35 307 20 27 228 70 22 2242 146
internal_value=0 15.1044 11.781 3.16156 7.42165 6.37194 19.7419 9.63364 8.06366 17.9299 2.44289 5.41536 4.71715 2.33794 4.14539 2.26657 3.63548 6.13666 3.38998 5.77912 4.9641 11.2078 3.14001 5.72482 12.5443 3.52905 5.25716 3.6022 1.46542 4.36575
internal_weight=0 400 377 4600 664 644 43 343 306 50 3936 601 566 3902 545 3882 525 256 1616 326 305 57 505 198 47 248 236 151 2266 216
internal_count=5000 400 377 4600 664 644 43 343 306 50 3936 601 566 3902 545 3882 525 256 1616 326 305 57 505 198 47 248 236 151 2266 216
shrinkage=0.2


Tree=3
num_leaves=31
num_cat=0
split_feature=209 78 93 211 102 147 5 210 123 118 24 184 177 33 110 94 210 173 93 182 40 151 134 68 178 42 79 16 85 193
split_gain=41238.5 74401.6 12651.4 12332.5 18887.8 5751.11 5193.78 7056.95 8792.07 5906.51 8848.96 5251.48 5179.28 3255.31 3075.21 2746.48 2628.15 2881.95 4386.74 5456.9 2215.06 2112.34 2005.67 1477.59 3320.63 4494 1309.97 2331.39 1357.51 3478.06
threshold=0.7763661500000002 0.011108821723610164 -0.038461402058601372 0.46947747500000009 0.17095045745372775 0.018413664773106578 -0.013752563390880821 0.45257371500000004 -0.020542869344353672 0.067715372890234007 -0.014252299908548592 0.15353196859359744 0.11297443136572839 -0.080798234790563569 0.079573851078748717 -0.039256431162357323 0.53582245000000006 -0.13477756828069684 0.051305862143635757 -0.08109868690371512 0.10809369385242464 0.042150275781750686 0.10310086235404016 -0.031762307509779923 0.010197151917964222 0.043794125318527229 -0.1308464631438255 0.01916406583040953 0.13404690474271777 -0.038810670375823968
decision_type=2 2 2 2 2 2 2 2 2 2 2 2 2 2 2 2 2 2 2 2 2 2 2 2 2 2 2 2 2 2
left_child=3 2 -2 4 6 -4 7 8 -1 21 -11 13 16 -8 -7 -12 17 18 19 -5 23 22 -9 24 25 -15 27 -19 -28 -30
right_child=1 -3 5 12 -6 14 11 9 -10 10 15 -13 -14 20 -16 -17 -18 26 -20 -21 -22 -23 -24 -25 -26 -27 28 -29 29 -31
leaf_value=6.4565754702091214 5.4648983538150793 14.658755534074524 3.8611121711276826 3.6513877833882966 6.6530185505747799 1.8861842554922288 2.4062995676810925 0.40098659433954142 1.2036156585583322 5.628762176845755 2.9676453817297115 3.8267412970374739 2.9422445283782097 4.4066701111586202 -0.79546615886688243 0.064766581077128654 0.16171721351581952 0.13687697052955627 3.4857391213548596 0.41734049179300198 2.3132303443150941 2.4451513754470007 2.231722059156056 0.32651504632493217 0.34519186435267329 0.69080429558952661 0.35468194153909144 3.022426994783538 3.4760285009443765 0.23205617245955346
leaf_weight=25 33 22 21 24 24 26 39 211 26 28 22 21 31 23 50 32 1657 24 29 160 27 28 27 594 100 30 1586 21 20 39
leaf_count=25 33 22 21 24 24 26 39 211 26 28 22 21 31 23 50 32 1657 24 29 160 27 28 27 594 100 30 1586 21 20 39
internal_value=0 19.5127 10.4112 2.78507 5.48086 4.65726 4.94004 7.90731 18.893 6.29734 13.7174 3.52045 1.84144 3.11716 0.609703 6.2371 1.72937 2.53113 5.99752 4.19586 2.66798 4.00994 3.04338 2.34636 5.11754 11.5167 2.09424 7.41733 1.94862 6.65854
internal_weight=0 152 130 4848 1257 97 1233 399 51 348 82 834 3591 813 76 54 3560 1903 213 184 774 266 238 747 153 53 1690 45 1645 59
internal_count=5000 152 130 4848 1257 97 1233 399 51 348 82 834 3591 813 76 54 3560 1903 213 184 774 266 238 747 153 53 1690 45 1645 59
shrinkage=0.2


Tree=4
num_leaves=31
num_cat=0
split_feature=205 48 57 202 19 11 49 158 1 123 17 211 105 1 172 15 209 190 64 77 126 203 86 188 165 58 117 183 163 65
split_gain=27219.3 74268.7 11679.8 9143.05 14356.1 7650.61 4643.79 6546.18 5195.61 4234.11 3625.05 3590.88 10224.9 3871.67 2973.32 2791.82 2852.92 2423.74 2357.44 2332.94 2140.32 1857.7 1586.72 1684.6 1721.4 2439.38 1625.58 1569.54 1401.71 1331.55
threshold=0.82426112500000015 0.13545303046703341 0.012644486036151649 0.80036729500000015 0.063725877553224577 -0.078301966190338121 -0.077163334935903535 -0.006864104187116026 0.1446778476238251 0.13079713284969333 0.10319903120398523 0.44608261000000005 0.083200316876173033 0.087348498404026045 0.032414065673947341 0.12794829159975055 0.74578506000000011 -0.18477028608322141 -0.081259384751319871 -0.017924623563885685 -0.029729871079325672 0.61924602500000014 0.083828940987586989 0.044715296477079398 -0.069561898708343492 0.017274776473641399 0.014927169773727657 -0.013456249609589575 0.14770802110433581 -0.13013428449630735
decision_type=2 2 2 2 2 2 2 2 2 2 2 2 2 2 2 2 2 2 2 2 2 2 2 2 2 2 2 2 2 2
left_child=3 2 -2 9 5 -5 7 -7 10 11 15 12 13 -1 20 16 18 -13 -8 -18 -4 -19 23 24 25 26 -20 -21 29 -23
right_child=1 -3 14 4 -6 6 8 -9 -10 -11 -12 17 -14 -15 -16 -17 19 21 22 27 -22 28 -24 -25 -26 -27 -28 -29 -30 -31
leaf_value=0.27514386666543555 4.1424873513834823 13.421801294883094 0.3156039190292359 4.5866159577938648 5.5243180177839744 0.69251077870527911 2.3403282123804092 5.4664394253492361 3.1982865395084508 2.5527562427170136 2.6238540366292002 2.4627239024639134 5.4117505016922953 2.6789271814748647 1.3809691345250166 2.7074088627383825 1.429284186601639 0.089868522563710973 0.0061501645523568856 -0.38578358261009393 -2.414135355419583 1.1589298960566521 1.9838344442623634 -0.074863605706819478 0.21531822105573717 2.8101946331560614 2.0366294458508492 -2.2623858974093483 2.0397866216301916 0.32779670038990716
leaf_weight=165 35 24 20 22 28 27 30 20 31 34 32 20 20 32 27 21 25 1587 46 118 27 80 27 168 107 32 24 21 20 2130
leaf_count=165 35 24 20 22 28 27 30 20 31 34 32 20 20 32 27 21 25 1587 46 118 27 80 27 168 107 32 24 21 20 2130
internal_value=0 16.7491 5.66072 2.24918 5.38897 4.56006 4.00559 13.6198 3.34303 1.65086 2.74072 1.55766 5.51519 3.32803 -1.45834 2.20419 1.80621 1.33385 3.14889 -1.74697 -6.26272 1.27631 2.51378 1.98342 3.87864 6.81805 3.51157 -3.3465 1.86484 1.78941
internal_weight=0 133 109 4867 779 751 729 47 682 4088 651 4054 217 197 74 619 598 3837 434 164 47 3817 404 377 209 102 70 139 2230 2210
internal_count=5000 133 109 4867 779 751 729 47 682 4088 651 4054 217 197 74 619 598 3837 434 164 47 3817 404 377 209 102 70 139 2230 2210
shrinkage=0.2


Tree=5
num_leaves=31
num_cat=0
split_feature=209 177 173 71 211 166 55 196 184 181 197 35 124 182 178 178 90 210 190 124 67 0 30 92 107 170 74 210 23 201
split_gain=18927.7 46368.1 14268.2 8241.32 5943.52 10402.9 23780.8 4907.31 4568.06 3637.8 20269.1 3021.56 2592.2 2613.47 2766.85 2006.79 1988.43 1671.85 2123.25 1561.99 2749.95 2317.5 3261.06 4563.04 2540.76 1523.47 1291.63 2896.51 1288.31 1267.58
threshold=0.7763661500000002 -0.14035931974649427 -0.13477756828069684 0.025774055160582069 0.45809282500000009 0.13684612512588504 0.026840218342840675 0.08589258044958116 0.1452477499842644 -0.1429672762751579 0.052547475323081023 -0.087588023394346223 0.1683500334620476 -0.1062781624495983 0.12302435934543611 0.038023252040147788 -0.0032656885450705882 0.54509070000000015 -0.16683922708034513 0.03938762657344342 -0.1692303195595741 -0.04414818808436393 -0.018044886179268357 -0.022752790711820122 -0.0085357371717691404 0.1204357109963894 -0.040574807673692696 0.46128161000000006 0.057088268920779235 0.81611143000000008
decision_type=2 2 2 2 2 2 2 2 2 2 2 2 2 2 2 2 2 2 2 2 2 2 2 2 2 2 2 2 2 2
left_child=4 -2 -3 16 5 7 -7 8 11 10 -6 -1 13 -13 26 -8 28 18 -11 20 -20 22 23 -22 -25 -23 27 -15 -4 -24
right_child=1 2 3 -5 9 6 15 -9 -10 17 -12 12 -14 14 -16 -17 -18 -19 19 -21 21 25 29 24 -26 -27 -28 -29 -30 -31
leaf_value=2.4339926045516442 9.9702574908733368 5.7105919361114506 0.61596905803680424 2.848343028693364 0.42649254798889163 8.8208633737195097 -0.50049857330322267 3.6448325754985924 3.193414032459259 2.3560057038068769 7.1252835783362389 2.3942043830047957 2.1917350146791033 2.0516468112858441 1.9503732538584508 2.118582866137678 -2.5807925758361816 0.021342393285508299 2.6579026997089388 0.13163159102939057 3.9497473767293352 0.2090754825647359 0.19724207509782432 2.9692560309171676 0.38672137840185317 1.8564154720824697 -0.07425277261768691 -0.2479139257669449 -1.4354922582705818 1.5281802307156955
leaf_weight=29 28 21 25 29 187 21 25 21 25 20 20 22 29 39 33 22 25 1237 22 1298 28 949 181 20 64 23 449 50 24 34
leaf_count=29 28 21 25 29 187 21 25 21 25 20 20 22 29 39 33 22 25 1237 22 1298 28 949 181 20 64 23 449 50 24 34
internal_value=0 13.096 4.79645 -0.0471094 1.76339 4.32138 16.1275 3.16956 2.70189 1.28412 5.36859 2.19247 1.72728 1.27583 0.86376 3.62727 -5.64678 1.06598 1.51563 1.43725 2.20277 2.015 4.31785 8.69322 5.00805 1.24028 0.318578 3.79879 -1.94414 2.03858
internal_weight=0 152 124 103 4848 765 68 697 676 4083 207 651 622 593 571 47 74 3876 2639 2619 1321 1299 327 112 84 972 538 89 49 215
internal_count=5000 152 124 103 4848 765 68 697 676 4083 207 651 622 593 571 47 74 3876 2639 2619 1321 1299 327 112 84 972 538 89 49 215
shrinkage=0.2


Tree=6
num_leaves=31
num_cat=0
split_feature=210 156 173 32 8 102 7 143 125 35 77 202 56 5 29 109 40 210 207 183 208 62 123 211 154 200 64 175 60 84
split_gain=13420.8 66115.3 6921.39 11599.8 7498.37 4417.92 18495.7 3212.9 2963 11209.1 2341.79 2002.76 2450.62 2261.74 3792.74 5357.97 1975.18 5696.97 2965.81 1963.94 2160.14 1595.16 1492.96 4166.56 6216.3 2457.23 1856.63 1969.96 2779.67 2883.04
threshold=0.46472497000000007 -0.14101712405681607 -0.097818411886692033 -0.013386308681219814 -0.031823115423321717 0.17095045745372775 -0.087535832077264772 0.131333664059639 -0.14179463684558866 0.055409217253327377 0.03266048617661 0.67728510000000008 -0.17822634428739545 0.098301991820335402 -0.027844242751598355 0.044637065380811698 0.11903779953718187 0.50003880000000012 0.81027508500000012 -0.15229093283414838 0.79039623500000011 0.1486892253160477 -0.017392640002071854 0.44694304000000001 0.03877645172178746 0.93421965000000007 -0.10608129203319548 0.078207790851593031 -0.058389516547322266 0.028159682638943199
decision_type=2 2 2 2 2 2 2 2 2 2 2 2 2 2 2 2 2 2 2 2 2 2 2 2 2 2 2 2 2 2
left_child=1 -1 3 4 -3 8 -7 19 9 -2 -6 -10 -13 16 15 -15 18 -18 22 -4 21 -21 -14 24 -24 26 -25 -28 29 -29
right_child=5 2 7 -5 10 6 -8 -9 11 -11 -12 12 13 14 -16 -17 17 -19 -20 20 -22 -23 23 25 -26 -27 27 28 -30 -31
leaf_value=12.078516419367357 0.17857773483233297 3.8966527204100903 1.9929639554942367 5.9818534989357 0.80266457994778961 6.9555358442664144 -0.22066914927141343 2.7978192043304446 0.034847654089811726 5.5227608627080924 -1.8164575880224054 2.3615695865419895 0.045041899399561248 0.31303230036439628 0.18220372883478803 4.3001723353884058 3.7188570744693283 0.044971289428380821 -2.2170380795001985 0.07511571540835485 -1.3281851457059384 1.7399070313343636 4.8855718684196479 1.9594133925437927 0.013717798753218217 1.8892208256219563 0.096415380915121848 0.58429695538565285 0.41097456348085526 3.9801995606534186
leaf_weight=22 73 26 22 25 36 20 51 20 1935 20 22 23 979 26 75 28 25 52 20 201 40 26 20 25 22 38 934 20 154 20
leaf_count=22 73 26 22 25 36 20 51 20 1935 20 22 23 979 26 75 28 25 52 20 201 40 26 20 25 22 38 934 20 154 20
internal_value=0 6.96057 4.14836 10.9997 5.37184 1.1774 9.00399 1.73155 1.05361 6.63932 -0.953978 0.935443 1.53395 1.43703 5.51197 11.9022 1.20937 6.18896 1.03758 0.883281 0.134989 1.32898 1.14719 1.87924 11.6682 1.53404 1.27328 1.08436 3.98402 11.4112
internal_weight=0 440 418 109 84 4560 71 309 4489 93 58 4396 2461 2438 129 54 2309 77 2232 289 267 227 2212 1233 42 1191 1153 1128 194 40
internal_count=5000 440 418 109 84 4560 71 309 4489 93 58 4396 2461 2438 129 54 2309 77 2232 289 267 227 2212 1233 42 1191 1153 1128 194 40
shrinkage=0.2


Tree=7
num_leaves=31
num_cat=0
split_feature=205 78 22 54 171 45 213 196 65 129 201 187 203 35 159 20 114 191 64 90 190 211 179 210 84 26 48 125 53 102
split_gain=11071.5 47930.6 8803.06 3792.15 22601 3632.37 2325.43 4880.89 4295.67 2127.95 2088.09 1936.72 1651.98 1939.94 1871.23 3861.32 1613.33 1442.77 1404.44 1393.06 1212.14 913.499 1999.59 1456.92 3551.37 4641.1 1854.87 1428.8 1269.14 1268.24
threshold=0.82426112500000015 0.0020589497871696953 -0.098317749798297868 -0.094712853431701646 0.076391570270061507 0.017978214658796791 0.86449527500000012 0.045245211571455009 0.041151851415634162 -0.20045115053653714 0.81895536500000021 0.22441997379064563 0.84401503500000008 0.0072565977461636075 0.17967016994953158 0.0017424679826945069 0.076798602938652052 -0.14007813483476636 -0.13688857108354566 -0.017912558279931542 -0.18477028608322141 0.44451652500000005 0.14356219768524173 0.51157438000000011 0.091058034449815764 -0.11018291488289832 0.12010988220572473 0.097399320453405394 -0.030574159696698185 0.16336055099964145
decision_type=2 2 2 2 2 2 2 2 2 2 2 2 2 2 2 2 2 2 2 2 2 2 2 2 2 2 2 2 2 2
left_child=3 2 -2 4 10 -4 7 8 16 -8 -1 12 14 -14 17 -16 -5 -11 -19 -7 -20 22 28 24 27 -26 -27 29 -22 -23
right_child=1 -3 5 6 -6 19 9 -9 -10 11 -12 -13 13 -15 15 -17 -18 18 20 -21 21 23 -24 -25 25 26 -28 -29 -30 -31
leaf_value=0.038160496647319492 3.4090451871852085 11.094880067110061 0.88680904483472978 -0.20278445597373904 6.8311076258619625 -0.57417486778327398 2.21095802038908 3.5743359157410652 2.8423806260857321 1.3919924890829458 2.209573204815388 1.6936092188581826 0.20881685388499294 -2.1250907853245735 0.038470475247928078 3.5220853084325792 1.2600571978168611 1.4617568878517035 1.6639538621902468 -2.7837739276885989 -1.1328723407643182 0.17578955882556044 1.6666762697696687 0.040230827252140278 3.9365707976477489 0.47950367165612989 2.5505849184095859 1.8078106047142122 -0.12524619841149875 -1.2114135912171118
leaf_weight=155 30 20 37 133 24 21 20 23 27 36 20 32 29 28 35 20 39 31 20 25 70 1116 20 2597 21 128 20 21 175 27
leaf_count=155 30 20 37 133 24 21 20 23 27 36 20 32 29 28 35 20 39 31 20 25 70 1116 20 2597 21 128 20 21 175 27
internal_value=0 10.3507 2.36422 1.10307 5.37821 -2.94217 0.920816 4.07941 2.48533 0.7631 1.43161 0.716594 0.660143 -4.68832 0.730436 6.5262 0.644532 0.655993 0.602544 -8.87522 0.553222 0.516194 -1.28086 0.63737 1.48722 5.77089 3.7969 0.865279 -2.0657 0.715105
internal_weight=0 133 113 4867 199 83 4668 222 199 4446 175 4426 4394 57 4337 55 172 4282 4246 46 4215 4195 265 3930 1333 169 148 1164 245 1143
internal_count=5000 133 113 4867 199 83 4668 222 199 4446 175 4426 4394 57 4337 55 172 4282 4246 46 4215 4195 265 3930 1333 169 148 1164 245 1143
shrinkage=0.2


Tree=8
num_leaves=31
num_cat=0
split_feature=165 211 81 13 42 32 209 68 10 51 210 201 136 159 80 49 201 212 176 101 65 65 209 96 184 56 116 24 136 168
split_gain=9602.74 6480.78 23586.8 6540.75 4563.99 7173.89 3880.74 3336.41 23851.4 2390.66 2072.09 1841.78 5195.37 3200.86 2698.76 2870.73 2256.42 2016.94 2957.43 1882.38 3732.18 1743.73 1557.89 1986.15 1516.06 2175.34 1208.68 1172.11 1354.08 1704.65
threshold=-0.20138775557279584 0.43353989000000004 0.20484822988510135 0.12028174847364427 0.10262370109558107 -0.073358267545700059 0.79850432500000013 -0.12226849421858786 0.061723766848444946 -0.06016943417489528 0.45047247500000004 0.81268906500000015 -0.09563968330621718 0.18418166041374209 -0.16113026440143582 -0.095311149954795824 0.9058086500000001 1.0226558500000003 0.072253566235303893 -0.10417537763714789 -0.038065137341618531 -0.061781302094459527 0.73949638000000018 -0.081541977822780595 0.12815909087657931 0.018967080861330036 -0.01541257696226239 0.010012963786721231 0.043937681242823608 0.084750771522521987
decision_type=2 2 2 2 2 2 2 2 2 2 2 2 2 2 2 2 2 2 2 2 2 2 2 2 2 2 2 2 2 2
left_child=-1 2 3 4 9 -6 7 8 -3 -2 -9 -12 -13 14 -14 -16 17 18 -17 20 -19 -11 23 -21 -25 -26 -23 28 29 -24
right_child=1 6 -4 -5 5 -7 -8 10 -10 21 11 12 13 -15 15 16 -18 19 -20 22 -22 26 27 24 25 -27 -28 -29 -30 -31
leaf_value=4.5894815908372406 -1.7230345231922048 -0.10766929789902049 7.4358755756508224 3.6516062628030777 4.8031599444150928 0.16401339918375016 -2.3404781258106233 1.8466079248913698 7.4983974045515058 1.7544159435090565 0.053513113486637891 3.4005354607647114 2.2457614488326589 2.6239275989325153 2.1041417294740676 0.39797055814780441 -1.3159415633905502 3.4002108252048497 3.2675369460135699 1.6712214398564715 -0.042920655790059006 1.1181302566826343 -0.43706946932875063 -0.053732951734278833 0.17787810794331813 2.6519593233153937 -0.63421409967783338 -1.1243981869035478 -1.1693015745487707 1.7142128650958721
leaf_weight=20 38 94 22 25 20 40 25 28 20 21 3557 22 26 23 30 51 42 20 20 33 34 20 34 467 44 21 74 74 29 26
leaf_count=20 38 94 22 25 20 40 25 28 20 21 3557 22 26 23 30 51 42 20 20 33 34 20 34 467 44 21 74 74 29 26
internal_value=0 0.991421 5.85195 2.95614 1.16014 8.55198 0.72368 0.789846 6.13364 -1.73862 0.656864 0.604122 1.80606 1.46281 1.18089 0.898463 0.575929 0.928259 6.0315 0.464921 6.16157 0.53363 0.0423679 0.828096 0.361132 4.88598 -1.30687 -2.68117 -0.235987 2.47576
internal_weight=0 4980 260 238 213 60 4720 4695 114 153 4581 4553 996 974 951 925 895 853 71 782 54 115 728 565 532 65 94 163 89 60
internal_count=5000 4980 260 238 213 60 4720 4695 114 153 4581 4553 996 974 951 925 895 853 71 782 54 115 728 565 532 65 94 163 89 60
shrinkage=0.2


Tree=9
num_leaves=31
num_cat=0
split_feature=207 12 200 175 194 102 208 96 199 196 210 184 47 168 137 33 144 91 29 205 48 35 210 94 147 53 127 130 15 205
split_gain=7033.06 5017.8 24540.7 15602.8 2551.58 2274.67 2120.43 5779.37 2682.45 1683.21 1302.59 3460.08 3385.73 6171.64 2771.97 2652.31 6195.88 2024.35 3094.58 1505.75 1392.09 1068.81 1276.94 1910.35 1160.47 2189.16 917.947 1306.98 1230.54 1367.79
threshold=0.83108530000000014 -0.13612151145935056 0.91290513000000006 0.10581678152084352 -0.1723402142524719 0.18303922563791278 0.79039623500000011 0.028990925289690498 -0.069516386836767183 0.12590114027261737 0.48842056500000003 0.1567245498299599 -0.070612605661153779 0.095775328576564803 -0.084616348147392259 -0.080798234790563569 0.037246111780405051 0.1326195225119591 0.0079435016959905642 0.7832093200000001 -0.029031333513557907 -0.092475134879350648 0.48388998000000005 -0.093860857188701616 0.10597715526819231 1.0000000180025095e-35 0.031798584386706359 0.11879425123333932 0.056399440392851836 0.78795912000000012
decision_type=2 2 2 2 2 2 2 2 2 2 2 2 2 2 2 2 2 2 2 2 2 2 2 2 2 2 2 2 2 2
left_child=1 2 3 -1 -3 6 9 8 -8 10 11 12 13 14 -6 16 -14 20 -19 -12 -17 -22 24 -24 26 -26 27 -23 -28 -30
right_child=-2 4 -4 -5 5 -7 7 -9 -10 -11 19 -13 15 -15 -16 17 -18 18 -20 -21 21 22 23 -25 25 -27 28 -29 29 -31
leaf_value=0.029508041928939778 2.8832069108360692 2.3517604577541351 7.2030742733374886 5.3358050135274731 2.5051737011224033 1.6940387632165637 -0.60901450157165538 1.2756736651062965 -3.4141040349006655 1.4377863900484267 0.042017142519149675 2.711660520149314 -0.55565023239081102 4.2028321689885599 -0.22532856794844927 1.2300931494683027 4.2107126104831698 3.1738965180516243 -0.16383991077542306 -1.0527793212264192 0.97713261316804323 -0.25832113238225174 2.229859723746777 0.057373637714806726 2.2579550347104669 -0.39380820149725138 -0.39610103143459302 1.2106203373107647 -0.68221263151615863 -2.5920401586064448
leaf_weight=290 38 20 23 24 20 35 25 31 30 37 3423 23 24 23 58 32 20 20 25 51 34 236 20 85 20 33 209 27 40 24
leaf_count=290 38 20 23 24 20 35 25 31 30 37 3423 23 24 23 58 32 20 20 25 51 34 236 20 85 20 33 209 27 40 24
internal_value=0 0.759607 4.48498 2.17542 0.488158 0.439209 0.377702 -4.54085 -10.6953 0.472037 0.416151 1.43881 1.14539 6.61879 2.374 0.494251 8.05439 0.081026 6.59799 0.129725 -0.304847 -0.588597 -0.856788 2.3559 -1.42951 3.03429 -1.87089 -0.537586 -3.15536 -6.99199
internal_weight=0 4962 337 314 4625 4605 4570 86 55 4484 4447 973 950 101 78 849 44 805 45 3474 760 728 694 105 589 53 536 263 273 64
internal_count=5000 4962 337 314 4625 4605 4570 86 55 4484 4447 973 950 101 78 849 44 805 45 3474 760 728 694 105 589 53 536 263 273 64
shrinkage=0.2


Tree=10
num_leaves=31
num_cat=0
split_feature=165 150 205 165 25 205 211 182 210 116 210 1 202 208 112 101 129 144 38 201 176 16 31 191 11 17 14 14 24 202
split_gain=5737.79 4210.51 23875.4 58022.3 9160.46 2577.36 2993.07 1842.85 1815.9 1494.17 3052.12 1322.34 4989.9 1686.28 2068.05 1911.56 2265.65 2710.51 1607.56 1605.35 2854.62 1935.82 1125.92 3131.82 1142.59 1044.69 980.164 1038.13 941.471 2007.79
threshold=-0.20138775557279584 0.065855700522661223 0.79286472500000016 -0.067142546176910387 -0.11528530344367026 0.85110772000000001 0.40814900000000004 -0.12091751769185065 0.45257371500000004 0.16670784354209903 0.52627842500000011 0.13723240792751315 0.83823092500000007 0.75125711500000014 0.023594360798597339 -0.029722370207309719 -0.068585701286792741 0.050320036709308631 0.059735946357250221 0.86480748000000007 0.098442174494266524 0.059642508625984199 0.14631511270999911 0.016467067413032058 -0.11588156223297118 0.11048607155680658 0.036641566082835204 0.074879106134176268 0.066634550690650954 0.6884203000000001
decision_type=2 2 2 2 2 2 2 2 2 2 2 2 2 2 2 2 2 2 2 2 2 2 2 2 2 2 2 2 2 2
left_child=-1 5 4 -4 -3 6 -2 -6 -9 11 -11 13 18 19 15 16 17 -15 -13 22 21 -21 24 -24 -8 28 -18 -28 -10 -30
right_child=1 2 3 -5 7 -7 9 8 25 10 -12 12 -14 14 -16 -17 26 -19 -20 20 -22 -23 23 -25 -26 -27 27 -29 29 -31
leaf_value=3.5189242386817932 2.1977168720502123 4.4638156598620116 -0.26810111304124201 13.167446708679201 1.9681628769352324 -1.8334532129353491 1.0747029923857787 1.8533099846406416 -0.14332519507035613 3.0529705131053926 0.00059228194387335529 -0.19328732155900227 3.1279198619035578 1.7987014368602208 1.0470136054826436 -1.4317579536374367 -2.0202952805906533 -1.1199864915013313 1.6036134662455881 -0.092984503075480465 2.5888629583212044 1.9792100001465192 -0.17544396096883819 2.7159181583186855 -0.013969408810985854 1.3611067874865099 0.57625244557857513 -1.4124115682783582 -0.15642905337888688 1.7438852533272335
leaf_weight=20 26 20 36 20 21 29 39 22 540 20 38 117 26 35 30 89 24 20 24 100 26 22 43 23 3430 22 21 21 61 35
leaf_count=20 26 20 36 20 21 29 39 22 540 20 38 117 26 35 30 89 24 20 24 100 26 22 43 23 3430 22 21 21 61 35
internal_value=0 0.622829 2.76139 22.6515 1.21653 0.227478 0.29275 0.614456 0.329525 0.225708 5.26568 0.154236 2.91012 0.0369199 -2.53141 -3.64091 -1.05337 3.6868 0.562841 0.204283 3.4309 1.40345 0.0691943 4.16076 -0.00865041 0.0307185 -5.00352 -2.0904 -0.20363 2.68197
internal_weight=0 4980 777 56 721 4203 4174 701 680 4148 58 4090 167 3923 240 210 121 55 141 3683 148 122 3535 66 3469 658 66 42 636 96
internal_count=5000 4980 777 56 721 4203 4174 701 680 4148 58 4090 167 3923 240 210 121 55 141 3683 148 122 3535 66 3469 658 66 42 636 96
shrinkage=0.2


Tree=11
num_leaves=31
num_cat=0
split_feature=156 81 16 10 210 79 110 209 32 93 196 208 16 102 79 149 119 196 98 206 31 27 33 24 40 105 192 84 204 210
split_gain=5331.94 46228.3 2858.62 20322.9 1790.49 8208.96 4745.98 1750.67 3897.33 1582.13 1348.3 1207.59 1108.81 3402.1 2313.22 4715.46 1663.5 3674.06 1294.69 985.753 2570.53 4105.74 1814.6 2113.71 936.314 886.934 851.497 1438.57 1998.49 1749.07
threshold=-0.14576818048954007 0.1732483580708504 0.15181917697191241 0.06656562909483911 0.43733146000000006 -0.051783943548798554 0.070715975016355528 0.79850432500000013 -0.05841794237494468 -0.068872872740030275 0.12590114027261737 0.70979077000000002 0.06331252679228784 0.15537250787019732 -0.11168891191482543 0.044867500662803657 0.10836090892553331 -0.05120172165334224 -0.13420083373785016 0.67759023000000018 -0.02981411479413509 -0.02952666766941547 -0.014302575029432772 0.043184861540794379 0.1430529057979584 -0.14051622152328488 0.071933459490537657 0.0048936153762042531 0.79510850000000011 0.50391100000000011
decision_type=2 2 2 2 2 2 2 2 2 2 2 2 2 2 2 2 2 2 2 2 2 2 2 2 2 2 2 2 2 2
left_child=1 9 4 -4 5 -2 -7 10 -9 -1 12 -11 18 14 15 -14 19 -18 -6 -16 21 -21 23 -22 25 -20 27 28 -27 -29
right_child=2 -3 3 -5 7 6 -8 8 -10 11 -12 -13 13 -15 16 -17 17 -19 24 20 22 -23 -24 -25 -26 26 -28 29 -30 -31
leaf_value=1.5245329226766315 4.4972788953781127 9.9926847628184738 -0.37641979350312932 6.8195194227248441 1.3621130697981076 2.1348929378119386 -1.5745353022137205 -2.9384140426913898 0.84182321786880498 -0.053301258309511469 1.284045226403645 -1.696095973727378 3.6105140711626285 2.6746017666364259 -0.082885821133869941 -0.14383321348577738 3.167099716717547 -0.16959300235365377 0.96334247844559817 3.0273444525671729 -0.0097580110484903511 -0.061114824397696388 -0.5134104741487785 2.3561623029734782 1.0485984604805709 -0.079445058112835587 -0.20786428617259292 0.45846976593418892 -1.1177155625820159 -0.018559920080488786
leaf_weight=21 20 21 73 20 27 22 37 24 20 96 35 22 23 22 727 32 22 33 35 33 44 36 112 23 32 1015 962 482 80 849
leaf_count=21 20 21 73 20 27 22 37 24 20 96 35 22 23 22 727 32 22 33 35 33 44 36 112 23 32 1015 962 482 80 849
internal_value=0 6.2322 0.364817 5.85547 0.257248 4.97819 -0.956793 0.177352 -6.10062 -0.374671 0.23709 -1.79793 0.189932 1.06172 0.81209 7.13083 0.474681 5.82542 -0.0872274 0.172844 1.89441 7.07987 -0.104458 4.01212 -0.141132 -0.191466 -0.243203 0.0724878 -0.776502 0.770943
internal_weight=0 160 4840 93 4747 79 59 4668 44 139 4624 118 4589 1107 1085 55 1030 55 3482 975 248 69 179 67 3455 3423 3388 2426 1095 1331
internal_count=5000 160 4840 93 4747 79 59 4668 44 139 4624 118 4589 1107 1085 55 1030 55 3482 975 248 69 179 67 3455 3423 3388 2426 1095 1331
shrinkage=0.2


Tree=12
num_leaves=31
num_cat=0
split_feature=207 188 156 117 86 102 197 93 56 120 24 81 213 147 93 143 17 159 112 209 137 129 91 63 38 143 137 145 1 204
split_gain=5002.58 3079.37 19374.7 2827.99 13271.6 1777.15 13765.7 1214.2 3062 2281.45 1790.9 1968.46 1323.56 6502.3 2924.65 1290.4 1209.31 2931.47 3007.68 2041.46 1290.04 1112.68 1043.8 1160.54 981.621 969.277 901.921 837.82 1208.05 849.104
threshold=0.83108530000000014 -0.089357495307922349 -0.091455690562725053 -0.12559819221496579 -0.060239056125283234 0.17095045745372775 -0.012051518540829418 0.055475873872637756 -0.14312109351158139 0.10964355245232583 0.10974240303039552 0.061100997030735023 0.85121196500000018 -0.0038844235241413112 -0.048012156039476388 0.11096540465950967 0.082098152488470091 0.11899149045348169 -0.021538841538131234 0.79850432500000013 -0.15748766064643857 -0.1909370273351669 0.052216626703739173 0.039759062230587013 0.025813052430748943 0.060780830681324012 -0.068115726113319383 0.06502047181129457 0.16231644153594973 0.79510850000000011
decision_type=2 2 2 2 2 2 2 2 2 2 2 2 2 2 2 2 2 2 2 2 2 2 2 2 2 2 2 2 2 2
left_child=1 2 -1 4 -3 7 24 12 -9 10 15 -12 13 -5 -15 -10 19 20 -19 21 -18 -14 23 -22 -7 26 -16 -23 29 -29
right_child=-2 3 -4 5 -6 6 -8 8 9 -11 11 -13 16 14 25 -17 17 18 -20 -21 22 27 -24 -25 -26 -27 -28 28 -30 -31
leaf_value=6.4445216948335826 2.3744236431623764 5.4419277183711534 -0.020341182140223051 3.909686406850815 0.0010573031515190281 -1.8869359223615554 5.16882280165499 2.5861267378807749 -0.068641860120487022 2.2806628239154816 2.7916039264202119 0.173749977833143 1.204808736288989 2.1867136266827583 1.1348727181553842 1.5325082097025147 1.5618145707107727 3.3523739911615849 0.031508698910474774 -1.852869108491219 0.041357101999381758 -0.013389992042133939 -0.54496598074249192 1.719132647626102 -0.078049797351871231 -1.2385572141561754 -0.5672084985131568 -0.17758128439227031 1.2517271112311972 -0.66691293163997378
leaf_weight=22 38 22 118 20 97 21 22 22 488 20 20 27 27 20 20 21 21 24 20 26 94 2332 102 20 28 39 33 1050 22 164
leaf_count=22 38 22 118 20 97 21 22 22 488 20 20 27 27 20 20 21 21 24 20 26 94 2332 102 20 28 39 33 1050 22 164
internal_value=0 0.354525 4.97783 0.220294 5.03466 0.0984758 5.0636 0.0223697 1.35215 0.909913 0.532453 6.43865 -0.174756 2.93954 -0.0263341 -0.0129131 -0.280109 1.71831 9.21445 -0.435192 0.32662 -0.371338 -0.40084 1.67852 -4.26643 -2.40892 0.375432 -0.419733 -1.08534 -1.21843
internal_weight=0 4962 140 4822 119 4703 71 4632 598 576 556 47 4034 132 112 509 3902 281 44 3621 237 3595 216 114 49 92 53 3568 1236 1214
internal_count=5000 4962 140 4822 119 4703 71 4632 598 576 556 47 4034 132 112 509 3902 281 44 3621 237 3595 216 114 49 92 53 3568 1236 1214
shrinkage=0.2


Tree=13
num_leaves=31
num_cat=0
split_feature=209 48 40 9 169 153 90 49 106 119 48 173 201 16 143 130 62 175 13 119 206 5 45 68 69 206 205 89 210 160
split_gain=4600.62 28905.5 9429.5 4326.5 2173.46 22151.3 2117.94 1815.91 1328.33 1587.72 2534.03 6089.23 4335.76 1907.57 1890.31 1656.76 1516.13 1386.33 1309.24 836.697 1511.91 815.753 1366.37 1274.31 799.081 1026.73 778.722 752.488 1346.66 692.253
threshold=0.7763661500000002 0.14421869069337848 0.076598055660724654 -0.072036594152450548 -0.14074814319610593 -0.02971769310534 -0.024401280097663399 0.01009438978508115 -0.032506493851542466 0.025830128230154518 0.10525982454419137 -0.13646627217531201 0.87014105000000008 0.11304353922605516 0.13877636194229129 0.17093151807785037 -0.1290718615055084 -0.084962971508502946 0.073177047073841109 0.11759528517723085 0.60373440500000009 -0.022985676303505894 -0.082746312022209154 0.06965153664350511 0.16002475470304492 0.78141295000000011 0.79707797000000002 0.094961103051900878 0.50304855000000004 -0.15298848599195478
decision_type=2 2 2 2 2 2 2 2 2 2 2 2 2 2 2 2 2 2 2 2 2 2 2 2 2 2 2 2 2 2
left_child=4 2 3 -2 5 -1 18 -8 19 10 14 -12 13 -13 15 16 -10 -11 -5 24 -21 22 -18 -24 25 29 -23 -19 -29 -6
right_child=1 -3 -4 6 8 -7 7 -9 9 17 11 12 -14 -15 -16 -17 21 27 -20 20 -22 26 23 -25 -26 -27 -28 28 -30 -31
leaf_value=6.9534153829514977 1.8669959023949645 8.0426909429686404 3.8268692710182886 0.88067775249481217 0.98485212624073037 -0.33789082386344677 -3.4105268127918245 -0.91911808685822916 1.6419201805539754 1.2617843563357989 3.1378665295001622 0.022634502252443664 2.8822643151650063 2.0078667454953707 1.760742062771762 1.355216391919515 1.8089486777782442 -0.15170838989949853 -1.3803591694150654 -0.10906951438635588 1.9865779013683398 -0.053469600589934232 0.0055413684420624887 1.2654597226026896 0.77908130457272406 -0.9279764066992412 -1.1054429152916219 1.9146981623768806 -0.17734194161603228 -0.14438336417293038
leaf_weight=20 21 21 22 20 22 100 25 22 23 30 37 248 26 21 27 39 22 1075 21 40 21 957 243 37 37 67 29 20 32 1675
leaf_count=20 21 21 22 20 22 100 25 22 23 30 37 248 26 21 27 39 22 1075 21 40 21 957 243 37 37 67 29 20 32 1675
internal_value=0 5.77095 0.249629 -3.56197 0.183798 4.38663 -6.63965 -11.2217 0.0771266 0.50436 1.11677 3.59666 2.07996 0.888077 0.518863 0.353166 0.162095 -0.400233 -1.38707 -0.580474 3.06191 0.0183897 1.45638 0.860153 -0.703842 -0.800311 -0.42205 -0.578827 3.13644 -0.648719
internal_weight=0 152 131 109 4848 120 88 47 4728 2866 1709 332 295 269 1377 1350 1311 1157 41 1862 61 1288 302 280 1801 1764 986 1127 52 1697
internal_count=5000 152 131 109 4848 120 88 47 4728 2866 1709 332 295 269 1377 1350 1311 1157 41 1862 61 1288 302 280 1801 1764 986 1127 52 1697
shrinkage=0.2


Tree=14
num_leaves=31
num_cat=0
split_feature=165 150 12 134 147 205 173 65 212 45 211 207 129 204 203 61 100 177 205 209 203 146 176 77 183 191 102 148 31 146
split_gain=3263.39 2587.15 16275.5 40681.9 3797.17 2797.79 2330.87 3853.2 5886.36 1691.64 2097.06 1315.26 1151.75 1048.69 995.007 2791.39 1901.62 1585.38 1380.99 1138.89 1334.39 2705.17 2246.96 1099.71 1413.04 940.153 1054.04 849.807 790.535 2446.68
threshold=-0.20138775557279584 0.065855700522661223 -0.14034197479486463 0.0075582710560411224 0.13648857176303866 0.85110772000000001 -0.099040918052196489 -0.0007668877369724213 1.0490581000000001 1.0000000180025095e-35 0.49295842500000003 0.82462836500000003 -0.1909370273351669 0.81389417500000005 0.84205705000000008 0.023576840758323673 0.03737092204391957 -0.083258569240570054 0.80718680000000009 0.7508377650000001 0.8062198450000001 0.032183207571506507 0.10108378529548646 0.026256502605974678 -0.019570339471101757 -0.14007813483476636 0.14762940257787707 0.014853300061076881 0.14631511270999911 0.032183207571506507
decision_type=2 2 2 2 2 2 2 2 2 2 2 2 2 2 2 2 2 2 2 2 2 2 2 2 2 2 2 2 2 2
left_child=-1 5 3 -3 6 11 7 9 -9 10 -4 12 -2 -8 18 16 17 -16 19 20 25 22 23 24 -22 -14 28 -21 -27 -30
right_child=1 2 4 -5 -6 -7 13 8 -10 -11 -12 -13 14 -15 15 -17 -18 -19 -20 27 21 -23 -24 -25 -26 26 -28 -29 29 -31
leaf_value=2.6062251788377764 1.1494470332475271 10.625275409363566 2.5412609587113066 -0.50949218592473444 2.453479391998715 -1.9732854382745153 -0.10547195521336356 4.6069263657554984 0.030942545167129971 -0.4581759274196931 -0.19543128858009975 1.6159643010608855 0.99349196319364852 -1.3851894753950615 -1.1008602833206005 1.3650021579265594 -2.3351256370544435 0.7478798278740475 1.1988199222244715 -1.7266254263428544 -0.27865702155090516 2.2398216111044729 2.0745672447340833 -0.84509595207483423 1.7306382068565913 -0.025144193073714422 -0.56783046377822755 -0.25788369772955777 -0.21699292179370344 2.3386048920270381
leaf_weight=20 34 21 21 35 27 29 499 22 23 78 24 20 36 27 55 25 30 28 38 26 42 31 21 53 21 3466 142 40 43 23
leaf_count=20 34 21 21 35 27 29 499 22 23 78 24 20 36 27 55 25 30 28 38 26 42 31 21 53 21 3466 142 40 43 23
internal_value=0 0.23172 1.90807 18.3302 0.632564 -0.0781838 0.179912 3.42269 11.3405 0.525951 5.40846 -0.0101773 -0.0491277 -0.855804 -0.0969618 -2.73679 -4.85223 -2.38594 -0.00547604 -0.0632813 0.00682224 2.7634 0.854585 -0.868546 1.95554 -0.118004 -0.167834 -4.18239 -0.0604368 3.36797
internal_weight=0 4980 777 56 721 4203 694 168 45 123 45 4174 4154 526 4120 138 113 83 3982 3944 3878 168 137 116 63 3710 3674 66 3532 66
internal_count=5000 4980 777 56 721 4203 694 168 45 123 45 4174 4154 526 4120 138 113 83 3982 3944 3878 168 137 116 63 3710 3674 66 3532 66
shrinkage=0.2


Tree=15
num_leaves=31
num_cat=0
split_feature=205 23 159 92 199 16 172 86 194 209 47 130 19 156 95 7 45 56 80 158 42 5 210 141 182 82 211 142 156 144
split_gain=3397.18 28321.2 5512.45 5695.96 3186.53 1946.45 1596.96 10074.5 867.807 922.612 838.651 2211.36 4851.68 9804.28 1741.84 3081.94 1422.65 1284.11 1219.61 5146.1 971.81 866.475 3195.51 800.583 1235.55 858.186 764.48 763.499 748.279 3165.36
threshold=0.82426112500000015 0.09447116777300836 0.066791631281375899 0.026485795155167583 -0.068838763982057558 0.17824460566043857 -0.12939363718032834 -0.047072313725948327 -0.1723402142524719 0.78258776500000005 0.016855802386999134 0.10878317058086397 -0.071687147021293626 -0.020095845684409138 -0.13618177920579908 -0.092549592256546007 -0.066957175731658922 -0.18463480472564694 -0.15625601261854169 -0.0073569261003285638 0.090112153440713896 0.098301991820335402 0.51596247500000014 0.061355449259281165 -0.10839784517884253 -0.18114530295133588 0.45758323500000003 -0.077519908547401414 -0.15728367865085599 0.067932046949863448
decision_type=2 2 2 2 2 2 2 2 2 2 2 2 2 2 2 2 2 2 2 2 2 2 2 2 2 2 2 2 2 2
left_child=5 2 3 -2 -4 6 7 -1 -8 10 11 14 13 -13 15 -10 -14 -16 19 -19 27 28 -23 25 -25 -12 -17 -18 29 -20
right_child=1 -3 4 -5 -6 -7 8 -9 9 -11 23 12 16 -15 17 26 20 18 21 -21 -22 22 -24 24 -26 -27 -28 -29 -30 -31
leaf_value=4.8280740733444691 -1.0614989856878916 7.5980971520597285 0.040535663182918846 3.1038071348749359 -2.9403210870921614 1.4438108895170061 1.3017584799556063 -0.029218029335905345 2.3243815376077381 -1.3106070518493653 0.87132474492336154 5.8268819520249968 1.7441092935204505 -0.015498097958388152 1.564657698236406 -0.77265276809533434 0.8311432072094509 -0.57558318629860883 -0.53647186913911038 3.4460388978570702 1.2361816687881948 2.0428447023861938 -0.099527509846701862 1.589206658942359 0.02473504843882152 -0.22917564317902903 0.48789050772563736 -0.49312818992663837 -0.11566308447863623 2.6344386808574201
leaf_weight=20 24 22 26 29 32 38 20 117 35 22 29 20 20 27 20 27 21 35 34 20 20 36 123 21 525 1253 67 102 2195 20
leaf_count=20 24 22 26 29 32 38 20 117 35 22 29 20 20 27 20 27 21 35 34 20 20 36 123 21 525 1253 67 102 2195 20
internal_value=0 5.21264 -1.28387 6.08815 -8.02037 0.0900738 0.0339749 3.39938 -0.0642902 -0.0924284 -0.0618621 0.279939 3.4019 12.3531 0.0289389 3.61164 0.820882 -0.157194 -0.221997 4.43412 -0.283966 -0.328346 1.92769 -0.589522 0.424535 -1.02141 0.629098 -1.33517 -0.487843 3.1897
internal_weight=0 133 111 53 58 4867 4829 137 4692 4672 4650 2822 210 47 2612 129 163 2483 2463 55 143 2408 159 1828 546 1282 94 123 2249 54
internal_count=5000 133 111 53 58 4867 4829 137 4692 4672 4650 2822 210 47 2612 129 163 2483 2463 55 143 2408 159 1828 546 1282 94 123 2249 54
shrinkage=0.2


Tree=16
num_leaves=31
num_cat=0
split_feature=207 5 208 61 47 32 209 86 87 153 48 156 211 200 201 207 37 150 64 69 80 22 181 163 109 154 143 193 107 61
split_gain=2646.61 2349.47 18911.4 2464.74 2006.67 11960.8 1319.98 876.868 2120.07 825.334 3528.04 923.46 1288.28 936.133 1215.44 1109.76 4741.02 1247.99 896.195 890.486 830.199 4401.99 703.574 674.972 1474.32 1677.77 1388.44 954.043 2809.02 1197.4
threshold=0.83108530000000014 -0.091755699366331087 0.76587235000000009 -0.063263714313507066 -0.13179053366184232 -0.076304838061332689 0.79850432500000013 -0.15468139201402661 -0.022491291165351864 0.13448321819305423 0.12542408704757693 -0.13816665858030316 0.44533237000000009 0.95314680000000018 0.9058086500000001 0.78555774500000008 0.11793772876262666 0.034023335203528411 0.0026760122273117308 0.04162269830703736 -0.16113026440143582 -0.072769988328218446 -0.11882444843649863 0.010756894946098329 0.164327546954155 0.029535148292779926 0.13877636194229129 0.039551580324769027 0.076828103512525572 -0.052774252369999879
decision_type=2 2 2 2 2 2 2 2 2 2 2 2 2 2 2 2 2 2 2 2 2 2 2 2 2 2 2 2 2 2
left_child=1 2 3 -1 5 -3 7 8 -6 11 19 12 -9 14 15 20 -17 -18 -16 -11 21 -13 -5 24 27 -26 -25 -22 29 -29
right_child=-2 4 -4 22 6 -7 -8 9 -10 10 -12 13 -14 -15 18 16 17 -19 -20 -21 23 -23 -24 26 25 -27 -28 28 -30 -31
leaf_value=2.2140647299587726 1.6989613611447183 5.2661289746686819 6.5223342144489296 1.0099672923982144 2.2922115960920397 -0.06237574680795388 -1.3298077383349021 -1.924895570494912 -0.2582313846796751 -0.23418994745006785 2.9073840738087893 2.8237815704345706 -0.28942051494313825 1.2748719491741873 -2.0770396780967713 2.4284909250214697 -1.5477533578872682 0.52518996170588905 -0.18368831813335418 1.1278598124782244 -0.051223594246051662 -0.27380895210780959 -0.24078075407214683 -0.1674782038334314 2.5165445174137133 0.099703857964939552 1.5089271326363087 1.3829026122093202 1.9214540824676172 -0.087290924451767643
leaf_weight=20 38 20 20 20 22 107 31 22 32 96 20 25 155 22 20 36 26 21 20 24 1969 69 179 1660 20 27 20 25 39 195
leaf_count=20 38 20 20 20 22 107 31 22 32 96 20 25 155 22 20 36 26 21 20 24 1969 69 179 1660 20 27 20 25 39 195
internal_value=0 0.117399 3.17631 0.488148 -0.0373924 3.88379 -0.145746 -0.101583 3.90419 -0.149535 2.2405 -0.226086 -2.4635 -0.13166 -0.165968 -0.112862 3.50681 -3.10772 -5.65182 0.1911 -0.187061 2.75009 -0.575387 -0.25687 0.0981345 5.64073 -0.737605 -0.0187875 1.78547 0.398883
internal_weight=0 4962 239 219 4723 127 4596 4565 54 4511 140 4371 177 4194 4172 4132 83 47 40 120 4049 94 199 3955 2275 47 1680 2228 259 220
internal_count=5000 4962 239 219 4723 127 4596 4565 54 4511 140 4371 177 4194 4172 4132 83 47 40 120 4049 94 199 3955 2275 47 1680 2228 259 220
shrinkage=0.2


Tree=17
num_leaves=31
num_cat=0
split_feature=156 23 197 177 102 203 203 199 210 205 207 78 153 142 98 91 202 41 24 70 49 133 128 194 201 203 203 207 65 205
split_gain=2789.45 31396.3 2651.64 1828.31 1337.69 10508.3 1287.73 5882.67 1205.77 1102.21 822.925 710.329 2924.56 5053.45 2070.83 2123.29 1308.71 2337.01 764.91 616.656 599.822 1609.04 567.541 2272.4 723.688 1517.55 1220.55 1719.1 884.041 878.976
threshold=-0.14576818048954007 0.089684985578060164 -0.10643395408987998 0.11297443136572839 0.17095045745372775 0.72494432000000009 0.87029263000000012 -0.069516386836767183 0.48599060000000005 0.83841097500000006 0.81027508500000012 0.05611050873994828 0.097076516598463072 -0.014333945233374832 0.10231379792094232 0.035063399001955993 0.81283992000000016 0.0065124847460538158 0.12945192307233813 0.16349729895591739 -0.13471844047307965 0.069503035396337523 0.11961655318737031 -0.052533265203237527 0.9058086500000001 0.85121643000000013 0.83927376500000006 0.78907105000000011 0.011331231333315374 0.79707797000000002
decision_type=2 2 2 2 2 2 2 2 2 2 2 2 2 2 2 2 2 2 2 2 2 2 2 2 2 2 2 2 2 2
left_child=1 2 -1 4 6 -6 9 -8 -4 10 11 19 14 -14 16 -16 18 -18 -13 20 21 -2 24 -24 25 26 27 29 -28 -22
right_child=3 -3 8 -5 5 -7 7 -9 -10 -11 -12 12 13 -15 15 -17 17 -19 -20 -21 22 -23 23 -25 -26 -27 28 -29 -30 -31
leaf_value=1.8013011657056355 -0.14513413062141764 7.8673598171635106 -2.0534205231070519 1.4420840041765146 -0.65155135198281366 4.7428881448507312 0.87431727925936387 -3.3266373234490554 -0.34791369125170196 1.3413966228564582 -1.2666210344859534 -0.12145909346038264 -0.044631342553510901 3.4050731172592479 0.028450408365045279 2.907847889363766 -0.23631988062902734 2.5768080532905602 0.7970472983819874 1.0548270702362061 -0.066441858176977397 2.0344308086298404 2.3028989989310502 -0.16396215914164561 -0.89695435031208892 1.5844012433832342 -1.5820311295019616 1.5869188189506531 -0.092522405726569043 -1.0096681641042233
leaf_weight=21 42 22 20 35 52 20 30 24 97 24 21 795 41 29 21 20 27 21 38 20 3286 20 20 59 43 22 37 25 28 40
leaf_count=21 42 22 20 35 52 20 30 24 97 24 21 795 41 29 21 20 27 21 38 20 3286 20 20 59 43 22 37 25 28 40
internal_value=0 4.25291 -1.34017 0.00905019 -0.0434052 4.23452 -0.108482 -4.96387 -3.19727 -0.0524468 -0.0872967 -0.0589924 0.691189 6.92266 0.218083 7.16517 -0.10522 4.97212 -0.397792 -0.263325 -0.293902 2.78976 -0.347606 2.3028 -0.407756 -0.356764 -0.410081 -0.32683 -4.70198 -0.388928
internal_weight=0 160 138 4840 4805 72 4733 54 117 4679 4655 4634 992 70 922 41 881 48 833 3642 3622 62 3560 79 3481 3438 3416 3351 65 3326
internal_count=5000 160 138 4840 4805 72 4733 54 117 4679 4655 4634 992 70 922 41 881 48 833 3642 3622 62 3560 79 3481 3438 3416 3351 65 3326
shrinkage=0.2


Tree=18
num_leaves=31
num_cat=0
split_feature=125 209 24 203 134 201 90 167 105 58 163 213 177 54 116 163 37 63 202 21 197 176 163 64 198 179 202 146 201 191
split_gain=2323.6 21081.8 6963.71 2347.1 5897.2 2308.36 3734.65 1811.54 1692.46 1506.49 1369.86 1338.08 1087.58 1820.09 1060.01 1031.45 1120.44 2047.05 955.121 2677.47 1667.33 973.259 847.01 811.788 787.077 947.474 767.289 2825.15 835.698 762.231
threshold=-0.045158600434660905 0.78258776500000005 -0.115246444940567 0.81314542000000012 -0.010114233475178478 0.91263789000000017 -0.035976689308881753 -0.040194021537899964 -0.12416172400116919 0.1455914378166199 0.037799818441271789 0.80723360000000011 -0.16046737879514691 0.05669504031538964 0.17496540397405627 0.010756894946098329 0.16964020580053332 -0.02198753040283918 0.84969445000000021 -0.061578774824738496 -0.10060726478695868 0.0435133595019579 0.14770802110433581 -0.13688857108354566 0.03724270127713681 0.070695959031581893 0.83823092500000007 0.031286448240280158 0.86808964500000008 -0.14007813483476636
decision_type=2 2 2 2 2 2 2 2 2 2 2 2 2 2 2 2 2 2 2 2 2 2 2 2 2 2 2 2 2 2
left_child=1 2 -1 8 -5 9 -7 -6 -4 11 -9 -2 13 -10 15 16 -14 -18 22 -20 -21 -22 23 -13 25 -23 29 28 -28 -25
right_child=5 -3 3 4 7 6 -8 10 12 -11 -12 18 14 -15 -16 -17 17 -19 19 20 21 24 -24 26 -26 -27 27 -29 -30 -31
leaf_value=3.6591444111005829 1.4548315181680349 5.7595195519841385 1.4977674615879855 4.0724192488193509 1.9670502027124166 0.26515061016435976 -3.093185027746054 -0.72559589170492611 0.093511985630417863 1.3137409696588294 1.2220809185504915 1.0519414108533125 0.0089519274052265382 2.3643972503487021 1.3526439313377654 -0.29244341343161151 -0.33692538879811762 2.5245788547396661 1.3990686054229737 0.66634618949890134 -1.8212328165769578 -2.22366178174991 0.94307184519746134 0.97125351754603573 0.041609346253030442 -0.43246694450025203 -1.1013199549654258 2.5954027065634726 0.50106916566689808 -0.096349868090142038
leaf_weight=22 23 27 30 20 20 27 26 52 48 32 20 26 793 20 21 547 20 20 25 25 49 21 34 27 34 27 23 20 30 2891
leaf_count=22 23 27 30 20 20 27 26 52 48 32 20 26 793 20 21 547 20 20 25 25 49 21 34 27 34 27 23 20 30 2891
internal_value=0 1.08286 0.624622 0.383304 4.79911 -0.364709 -6.91167 1.41585 0.0533705 -0.259145 -0.922873 -0.32627 -0.098477 3.8071 -0.288041 -0.395343 0.305234 5.46913 -0.380357 -2.61226 -4.15194 -5.58012 -0.24795 -0.303884 -3.4731 -6.08057 -0.352246 2.84998 -0.971536 -0.432357
internal_weight=0 1660 1633 1611 112 3340 53 92 1499 3287 72 3255 1469 68 1401 1380 833 40 3232 181 156 131 3051 3017 82 48 2991 73 53 2918
internal_count=5000 1660 1633 1611 112 3340 53 92 1499 3287 72 3255 1469 68 1401 1380 833 40 3232 181 156 131 3051 3017 82 48 2991 73 53 2918
shrinkage=0.2


Tree=19
num_leaves=31
num_cat=0
split_feature=207 100 201 175 166 107 208 123 78 16 102 145 200 93 193 119 213 34 202 161 201 129 60 103 124 124 45 15 130 201
split_gain=2102.38 2024.53 21231.8 7581.34 2295.28 6055.42 2280.2 3347.35 2833.36 1085.17 1082.64 866.728 846.511 813.923 2394.55 1405.03 794.512 708.48 1678.04 665.065 1957.97 652.495 617.935 577.514 536.667 1092.38 524.953 1275.92 1105.55 793.191
threshold=0.83108530000000014 -0.059910692274570458 0.87293094500000012 0.13214856386184695 0.14177493751049045 0.018519833683967594 0.79039623500000011 -0.048758458346128457 -0.017997978255152699 0.02304585371166468 0.15856888890266421 0.16127402335405353 0.86985928000000012 0.057391878217458732 0.070436269044876113 0.10114743560552598 0.88081250000000011 0.074627421796321883 0.70570720000000009 0.14478162676095965 0.84711626500000015 -0.1909370273351669 -0.060269599780440324 -0.15294074267148969 -0.086509909480810152 -0.11390192434191702 -0.055549915879964822 0.12794829159975055 0.13024353981018069 0.84577645000000012
decision_type=2 2 2 2 2 2 2 2 2 2 2 2 2 2 2 2 2 2 2 2 2 2 2 2 2 2 2 2 2 2
left_child=1 2 3 4 11 -6 10 -8 9 -9 13 17 -12 19 15 16 -15 24 -19 21 22 -3 -21 -23 25 -1 27 28 29 -25
right_child=-2 6 -4 -5 5 -7 7 8 -10 -11 12 -13 -14 14 -16 -17 -18 18 -20 20 -22 23 -24 26 -26 -27 -28 -29 -30 -31
leaf_value=-0.58718965594234762 1.5005027068288703 0.93223002461286697 5.7033592324171751 3.9505843479931357 4.0380049580335617 -0.26140910255673683 1.0681809142909267 0.27867179185152058 -3.5118205755949021 -1.779801647719883 -0.38721382309008262 1.2143571299850011 -1.8302045304328205 1.1690154899250378 1.7767393383222658 1.3193484605210168 -0.06623617565685698 -0.087240797765553005 2.0281245817244051 0.94523250003560233 2.1056790085678752 0.79974338217328 -0.14083073461704232 0.055978194147628002 -0.23725304805477912 1.4338360767001692 -0.11983335826047561 1.3386139591194448 1.3192647944688798 -0.65865508007506535
leaf_weight=20 38 26 28 20 20 38 22 20 24 21 87 20 20 22 37 35 391 60 20 26 22 30 108 453 609 23 2632 31 25 72
leaf_count=20 38 26 28 20 20 38 22 20 24 21 87 20 20 22 37 35 391 60 20 26 22 30 108 453 609 23 2632 31 25 72
internal_value=0 0.0359606 1.43295 0.519282 0.044377 6.10574 -0.256101 -5.32104 -8.9297 -3.87834 -0.146405 -0.423122 -3.28466 -0.0605239 1.15192 0.513362 -0.00217922 -0.600578 2.208 -0.232213 1.78498 -0.328476 0.34949 -0.368479 -0.945189 2.46912 -0.409256 0.451064 0.0992416 -0.210143
internal_weight=0 4962 858 830 810 58 4104 87 65 41 4017 752 107 3910 485 448 413 732 80 3425 156 3269 134 3243 652 43 3213 581 550 525
internal_count=5000 4962 858 830 810 58 4104 87 65 41 4017 752 107 3910 485 448 413 732 80 3425 156 3269 134 3243 652 43 3213 581 550 525
shrinkage=0.2


Tree=20
num_leaves=31
num_cat=0
split_feature=124 177 169 209 117 208 97 122 31 176 37 94 211 28 145 80 168 165 67 69 21 192 84 105 211 61 23 44 135 71
split_gain=1864.78 12535.5 2059.09 8615.85 6126.85 2196.09 5528.89 4874.59 2083.99 1712.71 2156.92 1694.17 1554.38 4266.05 957.598 850.042 1174.06 737.623 1492.77 1022.72 1012.4 3186.05 3130.04 1053.11 756.758 727.993 905.343 729.698 704.342 693.632
threshold=0.16535638272762301 -0.13001588732004163 -0.050131637603044503 0.75609711000000013 -0.12077356874942778 0.79039623500000011 0.065673001110553755 -0.045514987781643861 -0.10319025069475173 0.1253502890467644 0.078739531338214888 -0.067383646965026842 0.43696747500000005 0.030093729496002201 0.099851761013269438 -0.080182276666164384 0.091344363987445845 -0.050902761518955224 -0.1692303195595741 0.16002475470304492 0.038425816223025329 0.11761636286973955 0.096684649586677565 -0.14051622152328488 0.44533237000000009 0.019710864871740345 0.038483928889036186 -0.083157084882259355 0.10452717915177347 0.079086549580097212
decision_type=2 2 2 2 2 2 2 2 2 2 2 2 2 2 2 2 2 2 2 2 2 2 2 2 2 2 2 2 2 2
left_child=2 -2 3 4 -1 17 11 -8 -6 12 -11 -7 13 -10 -13 -3 -17 18 -4 20 23 22 28 -20 25 27 -27 -19 29 -22
right_child=1 15 5 -5 8 6 7 -9 9 10 -12 14 -14 -15 -16 16 -18 24 19 -21 21 -23 -24 -25 -26 26 -28 -29 -30 -31
leaf_value=3.5136272243091038 5.1202995300970295 -0.75656434992949173 1.6441032166066378 3.323024541991098 1.6014795138993685 -0.62884534272280612 -1.4733148748224432 2.5717138803922217 2.8125748339626528 -0.0011316857658899748 2.7615072694420815 -3.7598785110882353 -0.12024673419571477 -0.49378580040222886 -1.9440522457544622 -0.051049390045858657 1.5372135690102975 -0.015521289684154369 1.3769807464629413 1.2209927418402264 -0.14809143714959452 2.5592814825281192 2.0178368697243356 -0.084560052495035315 -0.10155118813616348 -0.84985966414213188 1.0303394013927096 -1.2444506690782662 -1.2643843222409488 1.0974758226424457
leaf_weight=21 22 42 23 35 34 22 22 26 27 26 20 21 868 37 26 83 24 27 20 28 169 24 31 1410 1763 20 21 68 20 20
leaf_count=21 22 42 23 35 34 22 22 26 27 26 20 21 868 37 26 83 24 27 20 28 169 24 31 1410 1763 20 21 68 20 20
internal_value=0 3.3195 -0.0407556 1.18464 0.661822 -0.388727 -4.65324 3.58871 0.311 0.0434356 6.00008 -10.3868 -0.250562 4.50543 -13.7769 0.0295411 1.52598 -0.251803 0.217542 0.11065 0.0115703 1.8108 0.712236 -0.320595 -0.683087 -2.95595 0.565846 -4.47588 -0.678603 -0.0814269
internal_weight=0 171 4829 1068 1033 3761 117 48 1012 978 46 69 932 64 47 149 107 3644 1745 1722 1694 264 240 1430 1899 136 41 95 209 189
internal_count=5000 171 4829 1068 1033 3761 117 48 1012 978 46 69 932 64 47 149 107 3644 1745 1722 1694 264 240 1430 1899 136 41 95 209 189
shrinkage=0.2


Tree=21
num_leaves=31
num_cat=0
split_feature=200 29 169 209 182 209 41 108 154 72 37 12 182 108 2 213 105 195 105 190 165 95 150 98 203 149 116 25 26 210
split_gain=1691.96 1666.53 10264.5 9159.87 14475.8 1981.98 2334.43 2773.74 3496.54 1473.16 5929.09 1451.54 1360.8 3228.09 1235.77 1191.09 1014.97 897.578 835.762 940.657 781.19 690.229 644.205 1309.16 637.701 555.509 494.755 472.35 736.748 699.607
threshold=0.95314680000000018 -0.039588518440723412 -0.14074814319610593 0.7763661500000002 -0.023267031647264954 0.74125170000000018 -0.0060055791400372973 -0.020231283269822594 0.097186371684074416 -0.15784519910812375 0.11658381670713426 -0.17815806716680524 -0.12091751769185065 -0.030673629604279991 0.081068128347396864 0.85121196500000018 0.030497958883643154 0.091513875871896758 0.13616442680358889 -0.16683922708034513 -0.093051411211490617 -0.14573744684457776 -0.083924207836389528 -0.076836805790662752 0.7673758650000001 0.081853669136762633 0.091359682381153121 0.0066461083479225644 -0.12278508767485617 0.47095677500000005
decision_type=2 2 2 2 2 2 2 2 2 2 2 2 2 2 2 2 2 2 2 2 2 2 2 2 2 2 2 2 2 2
left_child=1 2 -1 11 -5 9 7 16 -9 10 -3 -4 13 -13 17 -14 -7 25 19 -11 -16 -17 23 -21 26 -8 -25 29 -29 -24
right_child=-2 5 3 4 -6 6 14 8 -10 18 -12 12 15 -15 20 21 -18 -19 -20 22 -22 -23 27 24 -26 -27 -28 28 -30 -31
leaf_value=4.3748077205989677 1.3413304633215855 -0.02466364592506454 1.6724915016265145 -0.91201617632593435 6.2782114326953895 -1.5122747022070384 -1.8078915063005228 -0.4047162034681866 2.8850573502480987 1.2318627774715425 3.2659833507957283 2.7807092371194262 1.413636083223603 -0.30586071520140679 -1.2515128990076483 1.0948578631877899 0.091488131770381231 -2.4894735388457776 0.8603683265355917 1.5841684954166413 0.4575720670430557 -0.089485392031167676 -0.53680791176206621 -0.13037704853040558 1.0798314384792163 -0.51266775020846622 0.70082784746632432 -0.65075795469375763 0.045761932595783511 -0.12901002197569253
leaf_weight=23 38 116 21 21 24 38 26 28 24 22 27 23 22 33 20 20 27 32 39 25 23 1243 188 217 23 27 33 65 928 1604
leaf_count=23 38 116 21 21 24 38 26 28 24 22 27 23 22 33 20 20 27 32 39 25 23 1243 188 217 23 27 33 65 928 1604
internal_value=0 0.00842558 0.919222 0.576677 14.6139 -0.360328 -3.10415 0.12449 5.5682 -0.155814 2.98324 0.112893 -0.0162949 4.80919 -6.05533 -0.226588 -4.23048 -8.26532 -0.298589 -0.356373 -1.68676 -0.353655 -0.402868 0.994561 0.360286 -5.7403 -0.10329 -0.552395 0.000844947 -0.858962
internal_weight=0 4962 1430 1407 45 3532 245 117 52 3287 143 1362 1341 56 128 1285 65 85 3144 3105 43 1263 3083 298 273 53 250 2785 993 1792
internal_count=5000 4962 1430 1407 45 3532 245 117 52 3287 143 1362 1341 56 128 1285 65 85 3144 3105 43 1263 3083 298 273 53 250 2785 993 1792
shrinkage=0.2


Tree=22
num_leaves=31
num_cat=0
split_feature=188 15 118 164 181 180 205 205 98 113 119 46 168 112 170 194 192 192 37 199 16 173 99 118 116 79 68 186 2 85
split_gain=1575.79 12184.2 1711.21 4734.87 1481.96 10530.8 1370.15 4671.81 3679.86 2619.02 2179.33 1685.34 1771.29 987.997 1082.56 936.611 817.511 750.876 3796.89 711.432 719.554 706.179 3563.95 1340.57 1380.14 1316.68 710.001 671.938 652.869 635.388
threshold=-0.089357495307922349 0.077832594513893141 0.16062724590301516 -0.025309657678008076 -0.16436318308115003 0.072339463979005827 0.79707797000000002 0.79286472500000016 -0.042065691202878945 0.055458823218941695 -0.088583532720804201 -0.0099890404380857927 0.094445977360010161 0.0026042767567560081 0.029519969597458843 -0.064783111214637742 -0.06274938583374022 -0.050749048590660088 0.14006840437650683 -0.1112362965941429 0.15687865018844607 -0.13646627217531201 0.093574613332748427 0.094028558582067504 0.13553082942962649 -0.0078000321518629781 -0.1396895498037338 -0.092751655727624879 0.064546272158622756 0.020921470597386364
decision_type=2 2 2 2 2 2 2 2 2 2 2 2 2 2 2 2 2 2 2 2 2 2 2 2 2 2 2 2 2 2
left_child=1 -1 4 -4 5 -2 7 16 -8 10 -10 12 -12 14 15 -13 -6 18 27 -19 21 22 23 24 -21 -25 -23 -18 -17 -28
right_child=2 -3 3 -5 6 -7 8 -9 9 -11 11 13 -14 -15 -16 28 17 19 -20 20 -22 26 -24 25 -26 -27 29 -29 -30 -31
leaf_value=-0.11277065957669451 -0.22909874902005592 5.1125127206246059 3.5569463786482816 -0.28111450319799286 -0.30848681807396883 4.7344950653257829 2.1624349296092986 2.2262611460041355 -2.4602036174138391 1.1164590760072073 -0.73363060545921321 0.24626355564052407 1.7269744122570214 0.026165615098879619 -2.4298364771449048 -1.7467234426074558 0.84074367662270866 -0.30160261328370347 2.9303274046807064 -0.1881598996779611 -0.69878161984838938 -0.84095517829423994 2.2945491215214133 0.13148786265116472 1.4237068965545168 2.2607149203618366 -0.087405275857493692 -0.24923962605661593 -0.66328205422244291 0.096649716399267116
leaf_weight=119 92 21 20 36 386 21 20 37 30 30 25 22 22 34 23 45 30 329 21 279 57 41 32 26 23 21 1637 92 44 1385
leaf_count=119 92 21 20 36 386 21 20 37 30 30 25 22 22 34 23 45 30 329 21 279 57 41 32 26 23 21 1637 92 44 1385
internal_value=0 3.35511 -0.0478162 5.44811 -0.111882 3.4667 -0.198085 -0.0580832 -2.28435 -3.23683 -4.31672 -3.20263 2.09071 -4.68351 -5.90505 -4.61122 -0.153061 -0.0180751 2.23179 -0.102078 0.0300423 0.0883655 1.37228 0.446165 -0.327009 5.41422 -0.0713381 0.0939453 -6.05545 -0.0152591
internal_weight=0 140 4860 56 4804 113 4691 4396 295 275 245 215 47 168 134 111 4359 3973 143 3830 3501 3444 381 349 302 47 3063 122 89 3022
internal_count=5000 140 4860 56 4804 113 4691 4396 295 275 245 215 47 168 134 111 4359 3973 143 3830 3501 3444 381 349 302 47 3063 122 89 3022
shrinkage=0.2


Tree=23
num_leaves=31
num_cat=0
split_feature=205 156 133 178 24 104 145 101 200 209 82 204 161 213 130 118 12 144 59 213 127 141 78 56 111 142 54 213 206 183
split_gain=1806.52 23666 2994.03 1675.22 1374.15 7147.38 1180.86 966.018 6457.22 706.986 1688.15 1446.6 1213.75 1242.73 754.103 963.544 686.86 635.839 1799.75 1349.2 4581.69 1039.91 2429.15 1086.75 665.039 1072.55 854.928 773.829 701.109 634.807
threshold=0.82426112500000015 -0.11274421215057372 0.083732981234788909 0.061667295172810561 -0.115246444940567 -0.061214625835418694 0.10252308845520021 0.091992992907762541 0.88633881500000011 0.73255272000000005 -0.16500023007392881 0.80509280000000005 -0.051852991804480546 0.8681533050000001 0.037900211289525039 -0.037363270297646516 -0.10447501391172408 0.034708775579929359 0.16826494038105014 0.85778415000000019 0.02718414552509785 0.11915235966444017 0.034881811589002616 -0.1713653281331062 0.10051787272095682 0.049333875998854644 -0.077038962393999086 0.85445261500000014 0.46302755500000009 -0.11820680275559424
decision_type=2 2 2 2 2 2 2 2 2 2 2 2 2 2 2 2 2 2 2 2 2 2 2 2 2 2 2 2 2 2
left_child=4 -2 3 -3 5 -1 -5 9 29 11 -11 17 -12 -14 15 -15 -16 24 19 20 -19 23 -23 -21 27 26 28 -6 -26 -9
right_child=1 2 -4 6 7 -7 -8 8 -10 10 12 -13 13 14 16 -17 -18 18 -20 21 -22 22 -24 -25 25 -27 -28 -29 -30 -31
leaf_value=3.9765618398076015 6.5692639795334449 -0.034289908284942314 1.3903822470169802 -2.8311024208863578 -0.78507454147641098 -0.32962941578749955 -0.84711252326766651 0.83305070588463226 3.79355349957943 1.3502396767789668 1.0368086109310388 1.489421997308731 0.55305552070631703 0.70534664193789176 -1.8362425317889768 -0.68382090705157328 -0.73459616193015664 -0.44876959576751246 1.9474886614084246 1.3580651516264135 3.3301986824898493 0.097750811656909201 2.6094334018975496 -0.058447313888416612 0.11575240442928458 1.5996773526072503 -0.068800624681221875 -0.11416489710432308 1.7703414473682644 -0.046483267399944232
leaf_weight=21 23 36 26 24 71 58 24 38 20 22 20 25 34 24 38 119 56 33 20 22 21 67 20 1421 21 20 229 2186 20 241
leaf_count=21 23 36 26 24 71 58 24 38 20 22 20 25 34 24 38 119 56 33 20 22 21 67 20 1421 21 20 229 2186 20 241
internal_value=0 3.67411 -2.42553 -5.32807 -0.0613919 4.07527 -9.19554 -0.129645 1.61078 -0.24557 -1.69514 -0.136922 -2.33369 -2.88851 -3.6996 -2.25337 -5.89971 -0.182598 0.310587 0.191561 5.10415 0.0181757 3.37575 -0.184256 -0.493186 0.932342 0.408931 -0.676351 4.61435 0.366549
internal_weight=0 133 110 84 4867 79 48 4788 299 4489 313 4176 291 271 237 143 94 4151 1604 1584 54 1530 87 1443 2547 290 270 2257 41 279
internal_count=5000 133 110 84 4867 79 48 4788 299 4489 313 4176 291 271 237 143 94 4151 1604 1584 54 1530 87 1443 2547 290 270 2257 41 279
shrinkage=0.2


Tree=24
num_leaves=31
num_cat=0
split_feature=81 156 201 167 16 172 80 201 109 176 115 106 199 140 115 134 208 201 137 141 82 165 212 176 31 201 116 174 171 38
split_gain=1467.48 20566.6 1556.45 1671.25 1315.13 949.505 6239 728.492 2000.63 1851.63 4413.28 1396.08 1429.76 1392.34 1242.56 1183.44 1166.86 1164.87 870.546 762.554 664.343 618.326 631.493 1000.19 774.737 1872.41 765.37 1519.26 672.306 1316
threshold=0.19106343388557437 -0.12814761698245999 0.89086360000000009 -0.062400225549936288 0.17824460566043857 -0.12939363718032834 -0.051079887896776192 0.87168065000000017 0.12937442958354953 0.076740685850381865 -0.027623767033219334 -0.098842874169349657 -0.070146963000297533 0.0079658324830234068 0.021930387243628505 0.012451716698706152 0.78678792500000017 0.86808964500000008 -0.12673032283782956 0.033271674066782005 -0.054107211530208581 -0.18744978308677671 1.0849073000000002 0.14218511432409289 0.14631511270999911 0.72459945000000003 0.16670784354209903 0.0037907719379290943 0.180893249809742 1.0000000180025095e-35
decision_type=2 2 2 2 2 2 2 2 2 2 2 2 2 2 2 2 2 2 2 2 2 2 2 2 2 2 2 2 2 2
left_child=4 -2 3 -3 5 6 -1 17 9 11 -11 -9 13 -13 18 -15 19 21 -12 -14 -21 -7 24 -24 26 -26 28 -28 -23 -30
right_child=1 2 -4 -5 -6 7 -8 8 -10 10 14 12 16 15 -16 -17 -18 -19 -20 20 -22 22 23 -25 25 -27 27 -29 29 -31
leaf_value=3.7573037987947466 6.6237709760665897 1.85847425788641 -1.3244561925956182 -0.10147243417354662 1.1712071220617037 -0.86494844385555814 -0.069979252908783762 1.0204909951913925 -1.9100119076926134 2.65680234006473 -1.7998826339131311 -1.366438186645508 -1.6377558736965576 1.6678593704104423 0.89121206654952134 -0.20135499167123011 -2.4309041281541188 1.1475478940150319 -0.17105068343026297 0.50305383233796985 -1.0093878543147674 -0.019157812529122738 -0.24075367632677241 1.1300018725070087 -0.40828888666629792 2.0648741935690245 -0.090912281838245693 2.1311540812253953 -0.31015978723409632 1.9566997517272833
leaf_weight=20 20 20 35 134 37 35 115 21 29 28 21 25 29 20 26 42 24 34 35 21 26 3377 662 22 25 24 32 20 21 20
leaf_count=20 20 20 35 134 37 35 115 21 29 28 21 25 29 20 26 42 24 34 35 21 26 3377 662 22 25 24 32 20 21 20
internal_value=0 2.6242 -0.602746 0.76533 -0.0827735 -0.128995 2.48513 -0.205398 -1.59884 -0.873731 2.44444 -2.62853 -3.49672 -0.532223 -1.25688 2.00809 -6.07583 -0.0922134 -3.90931 -4.15624 -1.66808 -0.138985 -0.104129 -0.983325 0.0667638 4.01528 0.0110066 3.81864 -0.0469211 3.97813
internal_weight=0 209 189 154 4791 4754 135 4619 347 318 110 208 187 87 82 62 100 4272 56 76 47 4238 4203 684 3519 49 3470 52 3418 41
internal_count=5000 209 189 154 4791 4754 135 4619 347 318 110 208 187 87 82 62 100 4272 56 76 47 4238 4203 684 3519 49 3470 52 3418 41
shrinkage=0.2


Tree=25
num_leaves=31
num_cat=0
split_feature=205 78 22 99 123 115 169 102 64 16 12 156 56 168 147 31 169 191 130 107 173 19 28 205 101 70 154 27 202 0
split_gain=1547.49 20793.9 2513.26 1331.67 1225.31 1047.36 767.569 749.977 4820.16 659.961 582.883 599.856 1245.32 758.411 1416.22 531.025 450.394 604.963 598.085 1735.32 1723.42 3294.85 1007.82 811.27 1177.2 732.956 638.12 597.752 592.42 567.066
threshold=0.82426112500000015 0.0020589497871696953 -0.098317749798297868 0.016995238140225414 0.13079713284969333 -0.02838199213147163 0.025326276198029522 0.17668393999338153 0.0073510925285518178 0.15181917697191241 -0.19475528597831723 0.045117987319827087 -0.1521990895271301 0.11088772490620614 1.0000000180025095e-35 -0.083784531801938997 -0.13074210286140439 0.032394109293818481 0.091034870594739928 -0.076572000980377183 -0.10215809941291808 -0.052951224148273461 0.15244413167238238 0.79286472500000016 -0.099957734346389757 0.15367653965950015 0.18843006342649463 -0.0076963994652032843 0.85178846500000016 -0.093069791793823228
decision_type=2 2 2 2 2 2 2 2 2 2 2 2 2 2 2 2 2 2 2 2 2 2 2 2 2 2 2 2 2 2
left_child=4 2 -2 -4 7 -5 -7 9 -9 10 -1 16 -13 15 -15 -14 17 -12 23 -20 21 -21 28 25 -25 26 -18 -26 29 -22
right_child=1 -3 3 5 -6 6 -8 8 -10 -11 11 12 13 14 -16 -17 18 -19 19 20 22 -23 -24 24 27 -27 -28 -29 -30 -31
leaf_value=1.0568338194489479 1.1947303883234661 6.6221846088767053 0.4352907789959794 -2.5158457498997451 1.1177191450407631 -1.6739220678806306 0.078298223018646251 3.2002853858470917 -0.65345272244633856 -0.55861145765871134 -0.20168369788121671 1.5833965659917644 0.78015061208180025 -0.11145218205451966 2.1465072719752789 -0.030540200613077148 -0.06719918234092262 -1.30864923787117 1.9246634068943207 2.3979074980957171 0.78835508450865754 0.047845856929818797 1.0113322363235058 0.88699433690025709 -0.52690525853942183 1.0991654911501842 0.94723756313323981 -1.6051091766357424 -0.90560313316160124 -0.14114619038286763
leaf_weight=20 30 20 21 22 38 20 20 20 37 93 94 24 35 25 20 422 3155 25 21 35 28 75 32 21 116 22 25 25 38 421
leaf_count=20 30 20 21 22 38 20 20 20 37 93 94 24 35 25 20 422 3155 25 21 35 28 75 32 21 116 22 25 25 38 421
internal_value=0 3.38969 -1.87071 -4.70602 -0.067663 -7.03718 -3.98906 -0.112173 3.49368 -0.155244 -0.102814 -0.125939 0.879873 0.543438 4.46043 0.157739 -0.253947 -2.1712 -0.197108 0.681033 0.382483 3.97796 -0.379565 -0.366785 -2.55006 -0.256325 -0.29612 -3.59038 -0.736771 -0.415909
internal_weight=0 133 113 83 4867 62 40 4829 57 4772 4679 4659 526 502 45 457 4133 119 4014 650 629 110 519 3364 162 3202 3180 141 487 449
internal_count=5000 133 113 83 4867 62 40 4829 57 4772 4679 4659 526 502 45 457 4133 119 4014 650 629 110 519 3364 162 3202 3180 141 487 449
shrinkage=0.2


Tree=26
num_leaves=31
num_cat=0
split_feature=125 209 47 200 199 13 54 70 213 36 10 7 4 49 201 61 37 20 49 53 156 81 207 77 49 175 137 32 12 85
split_gain=1332.5 11681.4 4595.07 1264.11 1921.45 1565.74 1235.91 1697.91 1419.13 2183.51 954.062 5835.49 1321.69 1215.74 1889.69 952.852 2469.24 937.168 931.327 947.356 842.975 1381.25 753.465 624.666 1039.16 710.576 691.899 945.416 620.196 548.033
threshold=-0.045158600434660905 0.78258776500000005 -0.13179053366184232 0.94058635000000013 -0.050399929285049432 0.060753824189305312 -0.0057115505915135137 0.11523511633276941 0.86449527500000012 0.01381559018045664 0.080913577228784575 -0.12713407725095746 0.072967179119586958 0.027523700147867206 0.82582655500000002 0.0098637752234935778 0.14898838102817538 0.23100058734416964 0.069605827331542983 0.069972973316907897 -0.14101712405681607 0.1622935235500336 0.75520033000000009 0.10601351782679559 -0.074744258075952516 0.09419355541467668 -0.1204797364771366 -0.018812245689332482 -0.14625818282365796 0.14247294515371325
decision_type=2 2 2 2 2 2 2 2 2 2 2 2 2 2 2 2 2 2 2 2 2 2 2 2 2 2 2 2 2 2
left_child=1 2 -1 10 5 -5 29 8 9 -8 17 -12 13 22 -15 -10 18 20 19 -17 21 -2 -13 28 -25 26 27 -26 -22 -4
right_child=3 -3 6 4 -6 -7 7 -9 15 -11 11 12 -14 14 -16 16 -18 -19 -20 -21 23 -23 -24 24 25 -27 -28 -29 -30 -31
leaf_value=2.6695834920914088 -0.31865115890401269 4.2763973271405256 -0.1721801487646997 1.1443341459546772 -2.3545363197724027 -1.0781730400631204 2.7941601605713369 1.7673677188378794 -0.07893102981313814 -0.1611791527271271 3.2000888617038727 -0.1856164321773224 1.580677007351603 -0.042797169929904427 1.8627663310368856 -0.032728527480845947 2.3689990727797801 1.1548836098363002 1.37146235871315 1.3729584035419284 -0.53715524494327838 -2.1294096321612597 -1.4389846347627187 1.5985230094939471 1.7287445092201232 1.2146281892345066 -0.16128422850007684 -0.19261563448678881 -0.084959235039509598 0.86372565627098086
leaf_weight=27 107 27 750 21 24 32 20 27 478 20 25 222 21 68 30 221 23 24 25 21 128 20 21 20 20 21 190 21 2325 21
leaf_count=27 107 27 750 21 24 32 20 27 478 20 25 222 21 68 30 221 23 24 25 21 128 20 21 20 20 21 190 21 2325 21
internal_value=0 0.751707 0.410606 -0.344498 -4.34931 -0.987785 0.193105 1.03606 0.775391 6.58245 -0.249993 1.22408 0.203612 -0.270568 2.70269 0.47294 1.90298 -0.448347 1.04655 0.446263 -0.500712 -3.01905 -1.46966 -0.383344 1.05448 0.503832 -0.00246843 3.72317 -0.542776 -0.719824
internal_weight=0 1660 1633 3340 77 53 1606 835 808 40 3263 387 362 341 98 768 290 2876 267 242 2852 127 243 2725 272 252 231 41 2453 771
internal_count=5000 1660 1633 3340 77 53 1606 835 808 40 3263 387 362 341 98 768 290 2876 267 242 2852 127 243 2725 272 252 231 41 2453 771
shrinkage=0.2


Tree=27
num_leaves=31
num_cat=0
split_feature=22 162 183 68 55 200 208 79 49 131 80 22 130 142 49 213 82 93 160 15 91 97 116 107 146 100 15 131 211 135
split_gain=1279.07 10893.2 1224.93 13321.4 2278.99 1364.81 858.426 1961.45 1062.25 659.207 798.748 3573.8 784.391 1797.04 898.441 2496.14 866.209 1759.12 1002.29 694.654 653.745 679.962 878.58 976.673 649.558 634.978 1548.83 1109.45 667.398 773.468
threshold=-0.15283299982547757 -0.098951332271099077 0.077122718095779433 -0.085737664252519594 -0.035616284236311906 0.95314680000000018 0.79039623500000011 -0.054546136409044259 0.0039174004923552283 0.024139851331710819 -0.16113026440143582 -0.072769988328218446 0.16195773333311084 -0.017057283781468865 -0.025701206177473065 0.85612574000000008 -0.14280969649553296 0.054613279178738601 -0.14738623052835462 -0.032406302168965333 -0.093728020787239061 0.056743428111076362 0.030183926224708561 0.077506214380264296 0.059398952871561057 0.03737092204391957 0.12288442254066469 0.014735159464180471 0.45282911500000006 -0.032815186306834214
decision_type=2 2 2 2 2 2 2 2 2 2 2 2 2 2 2 2 2 2 2 2 2 2 2 2 2 2 2 2 2 2
left_child=1 -1 5 -4 -5 6 9 -8 -9 10 11 -2 14 -14 15 -12 17 24 -18 -11 -20 -22 23 -23 -17 28 27 -27 29 -16
right_child=2 -3 3 4 -6 -7 7 8 -10 19 12 -13 13 -15 25 16 18 -19 20 -21 21 22 -24 -25 -26 26 -28 -29 -30 -31
leaf_value=4.8860206472873688 2.8648212773459303 -0.33250022774096583 5.3560366999544202 2.1341865108907223 -0.060568281269992114 1.1856896900468403 0.69756788313388829 -1.8094041195893009 -0.33684733013312024 -0.5574904928130634 1.8774855006065581 -0.20215697648173028 -0.16761835264888678 1.8602753495861746 -1.6708560098015537 0.077798416163949738 1.2002169693785687 2.2459155538305642 0.99851609965165466 -0.10564789567166698 -0.14607162038999522 0.34890802230823925 -0.090759466630109448 1.825684635794681 1.3047150918841364 -0.078453339655373863 1.5050138784306391 1.0798475949253354 -0.13655052668824402 -0.39701922325925398
leaf_weight=20 21 80 20 20 352 36 33 43 36 165 31 55 44 29 22 126 27 20 24 777 804 81 141 23 20 602 28 35 1142 143
leaf_count=20 21 80 20 20 352 36 33 43 36 165 31 55 44 29 22 126 27 20 24 777 804 81 141 23 20 602 28 35 1142 143
internal_value=0 3.55602 -0.0567009 1.63883 0.287146 -0.204138 -0.253506 -2.9871 -5.69183 -0.183286 0.0208446 3.22649 -0.0520545 3.18992 -0.124451 0.521978 0.304894 2.43419 -0.0164369 -0.923961 -0.167856 -0.285922 1.17256 3.37751 1.22935 -0.549612 0.245911 -0.0740522 -0.954374 -2.83432
internal_weight=0 100 4900 392 372 4508 4472 112 79 4360 3418 76 3342 73 3269 1297 1266 166 1100 942 1073 1049 245 104 146 1972 665 637 1307 165
internal_count=5000 100 4900 392 372 4508 4472 112 79 4360 3418 76 3342 73 3269 1297 1266 166 1100 942 1073 1049 245 104 146 1972 665 637 1307 165
shrinkage=0.2


Tree=28
num_leaves=31
num_cat=0
split_feature=208 5 202 90 210 169 173 208 48 53 156 209 63 68 30 177 72 80 56 103 43 120 173 174 168 138 67 48 204 83
split_gain=1211.34 1350.49 12454.6 1157.71 1515.64 1127.73 3359.09 924.224 2457.46 995.333 642.923 1128.74 1001.93 562.528 666.347 524.722 700.215 2191.39 1759.86 766.065 3622.07 867.249 1815.49 601.718 586.071 575.516 517.682 932.364 543.243 1380.08
threshold=0.82354516500000019 -0.091755699366331087 0.84219688000000004 -0.048808729276061051 0.51326508000000015 -0.16684202104806897 -0.0080020618624985201 0.79039623500000011 0.056866304948925979 -0.0035647258628159757 -0.14101712405681607 0.72545280000000012 0.080688405781984343 -0.096035432070493684 0.088271077722311034 -0.13596695661544797 -0.083081025630235658 -0.15625601261854169 -0.16357312351465222 0.035135490819811828 -0.037103712558746331 -0.026893114671111103 -0.1453028321266174 -0.062976710498332963 0.11685274541378023 -0.11333006992936133 -0.1692303195595741 0.08156257122755052 0.82083876500000008 -0.0046802044380456201
decision_type=2 2 2 2 2 2 2 2 2 2 2 2 2 2 2 2 2 2 2 2 2 2 2 2 2 2 2 2 2 2
left_child=1 2 3 4 -1 6 -3 10 -9 -10 11 12 -7 14 -12 25 17 -17 -19 21 -21 22 -20 -22 -24 -15 27 -18 -28 -30
right_child=-2 5 -4 -5 -6 7 -8 8 9 -11 13 -13 -14 15 -16 16 26 18 19 20 23 -23 24 -25 -26 -27 28 -29 29 -31
leaf_value=2.0605508244758393 1.1273884694827232 -0.80493948325514797 5.2352347761392597 -0.22547887332408745 -0.16827005102084236 -0.42439441332925665 2.8606253162771464 1.1698286147344681 -0.67473443214957785 -2.3083100633621214 -0.40763934057405482 -1.8203439185023307 1.0969633337575944 0.77460373168811203 0.7705894911573048 2.1493487090380357 -0.22340753945437344 1.9427315070515587 1.9382794464221942 2.8833176926455715 0.74582916097981589 -0.094596136572971196 0.017399104509824587 -0.26509367958125146 1.0764056195194522 -0.20507876255963936 -0.04507594218617117 1.6633718919754028 1.8827139839529992 -0.41280170137232003
leaf_weight=23 38 20 20 170 26 129 20 21 37 25 224 20 20 25 21 22 22 21 26 22 35 632 162 72 24 591 2470 20 20 22
leaf_count=23 38 20 20 170 26 129 20 21 37 25 224 20 20 25 21 22 22 21 26 22 35 632 162 72 24 591 2470 20 20 22
internal_value=0 -0.0306307 2.28851 0.106992 4.38956 -0.147987 5.13921 -0.193148 -3.50039 -6.66717 -0.133474 -2.04777 -1.10093 -0.0604621 -1.53324 0.0257373 0.172806 0.874981 0.656492 0.461013 2.73063 0.114117 1.86433 0.32791 0.770226 -0.826595 -0.106524 3.37529 -0.164739 3.40151
internal_weight=0 4962 239 219 49 4723 40 4683 83 62 4600 169 149 4431 245 4186 3570 1016 994 973 129 844 212 107 186 616 2554 42 2512 42
internal_count=5000 4962 239 219 49 4723 40 4683 83 62 4600 169 149 4431 245 4186 3570 1016 994 973 129 844 212 107 186 616 2554 42 2512 42
shrinkage=0.2


Tree=29
num_leaves=31
num_cat=0
split_feature=124 205 203 202 41 89 16 204 168 134 208 110 148 156 6 1 78 205 47 153 35 176 161 210 185 202 97 26 9 108
split_gain=1120.79 8812.15 1296.67 4821.11 1266.38 1188.96 11980 714.617 675.475 1650.8 671.75 1014.17 1027.43 648.049 732.429 762.233 606.822 1128.55 942.534 781.902 2322.64 955.153 727.832 824.773 627.418 1016.7 2251.09 1237.89 1026.51 648.615
threshold=0.16535638272762301 0.75666507500000002 0.880434775 0.89250828000000004 -0.052586562931537621 -0.098308321088552461 0.1161930598318577 0.85079729500000012 0.17617628723382953 0.027019240893423561 0.76073685000000013 0.1385910362005234 0.016111731529235843 -0.11487317457795142 0.011956343427300455 0.092034745961427702 0.0027478777337819342 0.78556122500000014 -0.13937935978174207 0.10738240927457811 0.048175372183322913 0.14998365193605426 0.010020795278251173 0.52108893000000012 -0.031994065269827836 0.6884203000000001 -0.070122592151164995 -0.1194840259850025 0.0596365723758936 0.11543938890099527
decision_type=2 2 2 2 2 2 2 2 2 2 2 2 2 2 2 2 2 2 2 2 2 2 2 2 2 2 2 2 2 2
left_child=2 4 3 5 -2 6 -1 8 10 -10 16 13 -13 -12 15 -15 -7 18 -18 21 22 24 -21 -24 25 -20 -27 -28 -29 -26
right_child=1 -3 -4 -5 -6 7 -8 -9 9 -11 11 12 -14 14 -16 -17 17 -19 19 20 -22 -23 23 -25 29 26 27 28 -30 -31
leaf_value=-0.015024229686295246 1.4650017848098651 4.4501829956471921 -1.1952603878201666 3.0169894754886628 -0.24363722575131719 -0.10213276022981693 5.1004612595587977 -1.015748482545217 -0.24367434958616896 2.1021031805872918 -1.6927348033525051 1.5143489199876787 -0.42658588648773732 -0.51106950640678406 -1.0760390684008598 0.75606506246107597 1.2079390958503442 1.4739939269694418 -0.081720387981222165 -0.34530774474143988 2.4723859179019931 1.0522379405570754 1.5119401163458825 -0.032034991585439251 -0.15223273425027212 2.2439622339171668 1.6701827274127439 -0.047924617595322759 1.0870946443564182 0.99729276321828364
leaf_weight=217 20 20 37 21 131 2149 20 30 30 20 20 20 24 64 52 27 27 22 474 60 20 33 25 31 1073 24 22 230 37 20
leaf_count=217 20 20 37 21 131 2149 20 30 30 20 20 20 24 64 52 27 27 22 474 60 20 33 25 31 1073 24 22 230 37 20
internal_value=0 2.52594 -0.0791395 -0.0336063 -0.0866371 -0.100152 2.08331 -0.214285 -0.181885 3.47318 -0.222916 -1.98199 2.27829 -3.13201 -2.38632 -0.675533 -0.137178 0.245387 0.169886 0.0925382 2.40936 -0.0721707 0.693403 3.2862 -0.165788 0.515016 1.91372 1.1409 0.546813 -0.655992
internal_weight=0 171 4829 4792 151 4771 237 4534 4504 50 4454 207 44 163 143 91 4247 2098 2076 2049 136 1913 116 56 1880 787 313 289 267 1093
internal_count=5000 171 4829 4792 151 4771 237 4534 4504 50 4454 207 44 163 143 91 4247 2098 2076 2049 136 1913 116 56 1880 787 313 289 267 1093
shrinkage=0.2


Tree=30
num_leaves=31
num_cat=0
split_feature=208 119 16 98 207 70 171 114 107 124 31 2 145 200 163 36 27 210 170 174 94 81 126 16 110 106 62 103 210 141
split_gain=1130.11 1163.43 7986.36 5487.92 1318.08 1233.91 1092.69 1002.07 777.7 699.576 955.837 761.143 951.537 749.384 883.02 698.154 2123.42 2701.34 615.282 1435.57 1123.72 580.434 813.884 570.036 604.415 1103.23 775.028 1011.52 559.69 549.211
threshold=0.82354516500000019 -0.046968903392553323 0.15181917697191241 0.13191130012273791 0.81027508500000012 0.11523511633276941 0.13278682529926303 -0.088361542671918855 -0.094559404999017702 0.034138072282075889 -0.13488128036260602 0.031627701595425613 0.15087077021598819 0.87705800000000012 0.071308895945549025 -0.060946511104702943 0.0016893529100343587 0.52721870000000004 0.059326542541384704 -0.1385146081447601 0.059140721336007125 0.11309625580906869 -0.02188905049115419 0.10788673534989358 0.088198848068714156 -0.12112341448664664 0.067023914307355895 -0.027939594350755211 0.46023166500000007 0.11134109646081926
decision_type=2 2 2 2 2 2 2 2 2 2 2 2 2 2 2 2 2 2 2 2 2 2 2 2 2 2 2 2 2 2
left_child=1 2 3 5 9 6 7 -1 -9 15 -11 12 -12 -13 -15 16 -3 -18 29 -20 21 -21 -23 24 28 -26 -27 -28 -10 -17
right_child=-2 4 -4 -5 -6 -7 -8 8 23 10 11 13 -14 14 -16 18 17 -19 19 20 -22 22 -24 -25 25 26 27 -29 -30 -31
leaf_value=1.1690019737355983 1.0881231116621117 0.037108957287791657 4.040446871749702 2.8630263645468013 -1.2618168403291041 1.1276529123003667 1.2349039534727733 1.0101817537546158 -1.0754185831752316 1.181110345165838 -0.064423514476176488 -0.15585246026084137 1.096829208834418 -0.67236559841024923 0.53133638550837836 -0.10206653817525553 3.2620960672696437 0.12467763372089552 1.894883122891188 -0.15235733872260712 1.3704588417653685 1.5989659268362448 0.04883859496386278 -0.70082542501271716 1.5637065866589548 -0.077427371727870939 -0.14502378866076468 1.8664598103147001 -0.16879910223506159 0.28332167371131839
leaf_weight=26 38 146 21 28 36 39 27 25 29 22 1056 578 29 251 27 1237 21 23 20 198 27 20 42 63 20 295 20 20 448 168
leaf_count=26 38 146 21 28 36 39 27 25 29 22 1056 578 29 251 27 1237 21 23 20 198 27 20 42 63 20 295 20 20 448 168
internal_value=0 -0.0336409 0.894836 0.504975 -0.28617 0.122876 -0.098193 -0.277224 -0.450244 -0.23007 -0.648852 -0.723142 -0.166927 -1.42816 -2.7773 0.202143 2.02078 8.11041 0.000308327 1.2828 0.711954 0.0743036 2.7444 -0.603907 -0.384299 0.603687 0.17295 4.30359 -1.11959 -0.279923
internal_weight=0 4962 1061 1040 3901 1012 973 946 920 3865 1963 1941 1085 856 278 1902 190 44 1712 307 287 260 62 895 832 355 335 40 477 1405
internal_count=5000 4962 1061 1040 3901 1012 973 946 920 3865 1963 1941 1085 856 278 1902 190 44 1712 307 287 260 62 895 832 355 335 40 477 1405
shrinkage=0.2


Tree=31
num_leaves=31
num_cat=0
split_feature=81 37 74 177 191 209 189 58 200 41 107 16 139 87 119 86 61 201 64 30 213 202 102 66 176 122 35 156 93 54
split_gain=1135.19 10116 1166.7 5634.33 4764.6 1170.07 3697.72 772.264 1853.01 768.466 634.91 602.628 586.03 1015.52 1538.61 525.184 1669.68 572.917 978.47 1282.89 1599.17 853.901 803.02 704.885 664.748 791.168 486.436 475.161 1118.79 2650.17
threshold=0.21171914041042331 0.15010429173707965 0.083716351538896575 0.053059849888086326 0.12019692733883859 0.80887290000000001 0.055686004459857948 0.1455914378166199 0.76438592500000013 0.026926187798380855 -0.089581899344921098 0.15181917697191241 -0.095475777983665452 -0.023023073561489579 -0.0078657530248165113 -0.15468139201402661 -0.017010618001222607 0.87168065000000017 -0.031788440421223634 0.02224033419042826 0.92088435000000013 0.84409148000000012 0.011535798199474813 -0.0078005546238273374 0.062520775943994536 -0.019378284923732277 0.18442998081445697 0.045117987319827087 0.063985168933868422 0.028473155573010448
decision_type=2 2 2 2 2 2 2 2 2 2 2 2 2 2 2 2 2 2 2 2 2 2 2 2 2 2 2 2 2 2
left_child=2 9 5 4 10 7 -7 11 -9 -2 -4 15 13 14 -12 16 -1 21 22 20 -20 26 -19 -22 -21 -26 27 -17 -29 -30
right_child=1 -3 3 -5 -6 6 -8 8 -10 -11 12 -13 -14 -15 -16 17 -18 18 19 24 23 -23 -24 -25 25 -27 -28 28 29 -31
leaf_value=2.0317351272702218 -0.81908850754207041 4.5602029326416202 1.1156324762141421 3.5403294520825153 3.1705038054287438 -3.0031720399856567 0.63085154145956046 -0.31440153762146283 2.2255208006501199 0.61049858842577254 2.3851324422018871 -0.57591727278578808 -0.11626403926572218 0.0044283316031379525 0.017324267505951549 -0.066042193577360422 -0.27123715361470685 -1.6856136206424599 1.6004031964323737 -0.95329311672718298 0.57970963895320893 1.1635712037483852 -0.33704336845855182 -1.0793281212449075 -0.56445665011803314 0.82134338826514208 0.81256142391098862 0.03144666119406072 -0.0071049716029512253 2.8371864616870881
